{"learner":{"attributes":{"scikit_learn":"{\"_estimator_type\": \"classifier\"}"},"feature_names":[],"feature_types":[],"gradient_booster":{"model":{"gbtree_model_param":{"num_parallel_tree":"1","num_trees":"400"},"iteration_indptr":[0,1,2,3,4,5,6,7,8,9,10,11,12,13,14,15,16,17,18,19,20,21,22,23,24,25,26,27,28,29,30,31,32,33,34,35,36,37,38,39,40,41,42,43,44,45,46,47,48,49,50,51,52,53,54,55,56,57,58,59,60,61,62,63,64,65,66,67,68,69,70,71,72,73,74,75,76,77,78,79,80,81,82,83,84,85,86,87,88,89,90,91,92,93,94,95,96,97,98,99,100,101,102,103,104,105,106,107,108,109,110,111,112,113,114,115,116,117,118,119,120,121,122,123,124,125,126,127,128,129,130,131,132,133,134,135,136,137,138,139,140,141,142,143,144,145,146,147,148,149,150,151,152,153,154,155,156,157,158,159,160,161,162,163,164,165,166,167,168,169,170,171,172,173,174,175,176,177,178,179,180,181,182,183,184,185,186,187,188,189,190,191,192,193,194,195,196,197,198,199,200,201,202,203,204,205,206,207,208,209,210,211,212,213,214,215,216,217,218,219,220,221,222,223,224,225,226,227,228,229,230,231,232,233,234,235,236,237,238,239,240,241,242,243,244,245,246,247,248,249,250,251,252,253,254,255,256,257,258,259,260,261,262,263,264,265,266,267,268,269,270,271,272,273,274,275,276,277,278,279,280,281,282,283,284,285,286,287,288,289,290,291,292,293,294,295,296,297,298,299,300,301,302,303,304,305,306,307,308,309,310,311,312,313,314,315,316,317,318,319,320,321,322,323,324,325,326,327,328,329,330,331,332,333,334,335,336,337,338,339,340,341,342,343,344,345,346,347,348,349,350,351,352,353,354,355,356,357,358,359,360,361,362,363,364,365,366,367,368,369,370,371,372,373,374,375,376,377,378,379,380,381,382,383,384,385,386,387,388,389,390,391,392,393,394,395,396,397,398,399,400],"tree_info":[0,0,0,0,0,0,0,0,0,0,0,0,0,0,0,0,0,0,0,0,0,0,0,0,0,0,0,0,0,0,0,0,0,0,0,0,0,0,0,0,0,0,0,0,0,0,0,0,0,0,0,0,0,0,0,0,0,0,0,0,0,0,0,0,0,0,0,0,0,0,0,0,0,0,0,0,0,0,0,0,0,0,0,0,0,0,0,0,0,0,0,0,0,0,0,0,0,0,0,0,0,0,0,0,0,0,0,0,0,0,0,0,0,0,0,0,0,0,0,0,0,0,0,0,0,0,0,0,0,0,0,0,0,0,0,0,0,0,0,0,0,0,0,0,0,0,0,0,0,0,0,0,0,0,0,0,0,0,0,0,0,0,0,0,0,0,0,0,0,0,0,0,0,0,0,0,0,0,0,0,0,0,0,0,0,0,0,0,0,0,0,0,0,0,0,0,0,0,0,0,0,0,0,0,0,0,0,0,0,0,0,0,0,0,0,0,0,0,0,0,0,0,0,0,0,0,0,0,0,0,0,0,0,0,0,0,0,0,0,0,0,0,0,0,0,0,0,0,0,0,0,0,0,0,0,0,0,0,0,0,0,0,0,0,0,0,0,0,0,0,0,0,0,0,0,0,0,0,0,0,0,0,0,0,0,0,0,0,0,0,0,0,0,0,0,0,0,0,0,0,0,0,0,0,0,0,0,0,0,0,0,0,0,0,0,0,0,0,0,0,0,0,0,0,0,0,0,0,0,0,0,0,0,0,0,0,0,0,0,0,0,0,0,0,0,0,0,0,0,0,0,0,0,0,0,0,0,0,0,0,0,0,0,0,0,0,0,0,0,0,0,0,0,0,0,0,0,0,0,0,0,0,0,0,0,0,0,0,0,0,0,0,0,0,0,0,0,0,0,0],"trees":[{"base_weights":[1.4936255E-2,1.8695921E0,-1.5271517E0,-9.977827E-2,1.9118845E0,-1.7347326E0,-1.4275679E-1,1.9287261E0,-9.943662E-2,9.632122E-2,-1.7945396E0,8.6388195E-1,-1.125673E0,9.970697E-2,6.730433E-2,-9.981533E-2,7.247296E-2,-5.82333E-2,-9.448061E-2,7.90914E-2,-1.0579168E-2,2.7788399E-2,-8.7933145E-2],"categories":[],"categories_nodes":[],"categories_segments":[],"categories_sizes":[],"default_left":[0,0,0,0,0,0,0,0,0,0,0,0,0,0,0,0,0,0,0,0,0,0,0],"id":0,"left_children":[1,3,5,-1,7,9,11,13,-1,15,17,19,21,-1,-1,-1,-1,-1,-1,-1,-1,-1,-1],"loss_changes":[2.622178E5,6.8078438E3,1.438568E4,0E0,2.7085938E3,4.7673906E3,6.4605474E3,1.5598125E3,0E0,3.9044573E3,2.52225E3,2.4911338E3,3.5171235E3,0E0,0E0,0E0,0E0,0E0,0E0,0E0,0E0,0E0,0E0],"parents":[2147483647,0,0,1,1,2,2,4,4,5,5,6,6,7,7,9,9,10,10,11,11,12,12],"right_children":[2,4,6,-1,8,10,12,14,-1,16,18,20,22,-1,-1,-1,-1,-1,-1,-1,-1,-1,-1],"split_conditions":[-1.8631431E0,-3.4328553E-1,1.1802666E0,-9.977827E-2,1.0180852E0,-1.2781354E0,-5.7303035E-1,-1.4172139E0,-9.943662E-2,-1.0351921E0,-8.41771E-1,-1.8436384E-1,-3.4707233E-1,9.970697E-2,6.730433E-2,-9.981533E-2,7.247296E-2,-5.82333E-2,-9.448061E-2,7.90914E-2,-1.0579168E-2,2.7788399E-2,-8.7933145E-2],"split_indices":[14,4,4,0,1,20,12,12,0,1,14,8,29,0,0,0,0,0,0,0,0,0,0],"split_type":[0,0,0,0,0,0,0,0,0,0,0,0,0,0,0,0,0,0,0,0,0,0,0],"sum_hessian":[9.1681195E4,4.1622254E4,5.005894E4,4.5E2,4.1172254E4,4.3531434E4,6.527506E3,4.0995754E4,1.765E2,1.3768585E3,4.2154574E4,3.2248972E3,3.3026084E3,3.6855535E4,4.1402207E3,5.405E2,8.363585E2,5.5300737E3,3.66245E4,1.9336104E3,1.2912869E3,9.032868E2,2.3993218E3],"tree_param":{"num_deleted":"0","num_feature":"30","num_nodes":"23","size_leaf_vector":"1"}},{"base_weights":[-1.866513E-2,1.8209239E0,-1.2859937E0,-9.566042E-2,1.8820418E0,-1.5623298E0,2.2168417E-1,1.8879578E0,-9.406694E-2,5.8235306E-1,-1.6163963E0,9.8186827E-1,-7.185667E-1,9.458698E-2,-9.498217E-2,-9.566464E-2,8.478601E-2,-1.4282271E-2,-8.3535075E-2,6.3554876E-2,-5.0025433E-2,-5.9013236E-2,6.2757246E-2],"categories":[],"categories_nodes":[],"categories_segments":[],"categories_sizes":[],"default_left":[0,0,0,0,0,0,0,0,0,0,0,0,0,0,0,0,0,0,0,0,0,0,0],"id":1,"left_children":[1,3,5,-1,7,9,11,13,-1,15,17,19,21,-1,-1,-1,-1,-1,-1,-1,-1,-1,-1],"loss_changes":[2.0958706E5,8.372547E3,2.2176758E4,0E0,8.068672E2,5.2171016E3,5.8944785E3,5.1959375E2,0E0,3.078775E3,3.1704297E3,2.6157397E3,3.3611724E3,0E0,0E0,0E0,0E0,0E0,0E0,0E0,0E0,0E0,0E0],"parents":[2147483647,0,0,1,1,2,2,4,4,5,5,6,6,7,7,9,9,10,10,11,11,12,12],"right_children":[2,4,6,-1,8,10,12,14,-1,16,18,20,22,-1,-1,-1,-1,-1,-1,-1,-1,-1,-1],"split_conditions":[-1.6252177E0,-2.0800664E-1,1.1802666E0,-9.566042E-2,1.0133413E0,-1.8149316E0,-4.8796207E-1,6.191318E0,-9.406694E-2,-1.2548872E0,-1.2899532E0,7.936973E-1,1.3159128E0,9.458698E-2,-9.498217E-2,-9.566464E-2,8.478601E-2,-1.4282271E-2,-8.3535075E-2,6.3554876E-2,-5.0025433E-2,-5.9013236E-2,6.2757246E-2],"split_indices":[10,4,4,0,12,20,12,29,0,1,10,3,18,0,0,0,0,0,0,0,0,0,0],"split_type":[0,0,0,0,0,0,0,0,0,0,0,0,0,0,0,0,0,0,0,0,0,0,0],"sum_hessian":[8.98969E4,3.6669254E4,5.3227645E4,5.900252E2,3.607923E4,4.4982883E4,8.244764E3,3.6023098E4,5.612987E1,1.1058754E3,4.3877004E4,4.5588955E3,3.6858687E3,3.5987668E4,3.543215E1,3.409368E2,7.6493854E2,1.7205708E3,4.2156434E4,3.9787532E3,5.8014215E2,2.9874382E3,6.9843054E2],"tree_param":{"num_deleted":"0","num_feature":"30","num_nodes":"23","size_leaf_vector":"1"}},{"base_weights":[-4.6295684E-2,1.6971142E0,-1.3884975E0,-9.169667E-2,1.7390611E0,-1.6936818E0,-7.0551884E-1,1.7553322E0,-9.121963E-2,-1.7691715E0,-1.0621809E0,5.0298375E-1,-1.2990334E0,8.8524796E-2,-1.0027009E-1,-1.6377099E-2,-9.016693E-2,2.1589778E-2,-8.155363E-2,8.495536E-2,-5.1247315E-3,-8.1342354E-2,-1.9124655E-2],"categories":[],"categories_nodes":[],"categories_segments":[],"categories_sizes":[],"default_left":[0,0,0,0,0,0,0,0,0,0,0,0,0,0,0,0,0,0,0,0,0,0,0],"id":2,"left_children":[1,3,5,-1,7,9,11,13,-1,15,17,19,21,-1,-1,-1,-1,-1,-1,-1,-1,-1,-1],"loss_changes":[2.0579722E5,5.6695234E3,1.0356172E4,0E0,2.1953125E3,1.6353594E3,1.100949E4,2.1498125E3,0E0,1.5103516E3,3.119545E3,3.6617778E3,3.0921035E3,0E0,0E0,0E0,0E0,0E0,0E0,0E0,0E0,0E0,0E0],"parents":[2147483647,0,0,1,1,2,2,4,4,5,5,6,6,7,7,9,9,10,10,11,11,12,12],"right_children":[2,4,6,-1,8,10,12,14,-1,16,18,20,22,-1,-1,-1,-1,-1,-1,-1,-1,-1,-1],"split_conditions":[-1.8631431E0,-3.239849E-1,5.2358633E-1,-9.169667E-2,1.0180852E0,8.6197406E-1,-5.5802804E-1,4.1697216E-1,-9.121963E-2,-1.2781354E0,-1.0404329E0,-8.615503E-1,6.518352E-1,8.8524796E-2,-1.0027009E-1,-1.6377099E-2,-9.016693E-2,2.1589778E-2,-8.155363E-2,8.495536E-2,-5.1247315E-3,-8.1342354E-2,-1.9124655E-2],"split_indices":[14,4,4,0,1,7,12,10,0,20,26,14,17,0,0,0,0,0,0,0,0,0,0],"split_type":[0,0,0,0,0,0,0,0,0,0,0,0,0,0,0,0,0,0,0,0,0,0,0],"sum_hessian":[8.794522E4,3.8254938E4,4.9690285E4,4.486108E2,3.7806324E4,3.434291E4,1.5347376E4,3.763499E4,1.7133719E2,3.06743E4,3.668609E3,5.0548804E3,1.0292495E4,3.7484375E4,1.5061224E2,7.1040344E2,2.9963898E4,1.01178467E3,2.6568242E3,1.6982263E3,3.3566543E3,7.5804604E3,2.712035E3],"tree_param":{"num_deleted":"0","num_feature":"30","num_nodes":"23","size_leaf_vector":"1"}},{"base_weights":[3.2075524E-2,1.644927E0,-1.3616844E0,-8.78572E-2,1.680568E0,-1.6753148E0,-6.5068567E-1,1.6945012E0,-8.760711E-2,-1.7062668E0,5.25201E-1,4.4952443E-1,-1.1803671E0,8.535584E-2,-9.5118694E-2,-2.4166647E-2,-8.681326E-2,-9.014379E-2,8.3275296E-2,5.6187775E-2,-3.4944214E-2,-7.0201404E-2,1.2679378E-2],"categories":[],"categories_nodes":[],"categories_segments":[],"categories_sizes":[],"default_left":[0,0,0,0,0,0,0,0,0,0,0,0,0,0,0,0,0,0,0,0,0,0,0],"id":3,"left_children":[1,3,5,-1,7,9,11,13,-1,15,17,19,21,-1,-1,-1,-1,-1,-1,-1,-1,-1,-1],"loss_changes":[2.0499162E5,5.1286953E3,1.0907234E4,0E0,2.0038984E3,2.312836E3,8.72743E3,1.8939531E3,0E0,1.2271797E3,1.2549489E3,3.7695193E3,3.2424365E3,0E0,0E0,0E0,0E0,0E0,0E0,0E0,0E0,0E0,0E0],"parents":[2147483647,0,0,1,1,2,2,4,4,5,5,6,6,7,7,9,9,10,10,11,11,12,12],"right_children":[2,4,6,-1,8,10,12,14,-1,16,18,20,22,-1,-1,-1,-1,-1,-1,-1,-1,-1,-1],"split_conditions":[-1.8631431E0,-3.4328553E-1,5.4768723E-1,-8.78572E-2,1.0180852E0,2.44138E0,-5.5802804E-1,5.2968055E-1,-8.760711E-2,-1.2781354E0,8.37901E-1,3.552851E-1,9.4238013E-1,8.535584E-2,-9.5118694E-2,-2.4166647E-2,-8.681326E-2,-9.014379E-2,8.3275296E-2,5.6187775E-2,-3.4944214E-2,-7.0201404E-2,1.2679378E-2],"split_indices":[14,4,4,0,1,7,12,10,0,20,19,14,20,0,0,0,0,0,0,0,0,0,0],"split_type":[0,0,0,0,0,0,0,0,0,0,0,0,0,0,0,0,0,0,0,0,0,0,0],"sum_hessian":[9.1189375E4,4.2272125E4,4.891725E4,4.3776144E2,4.1834363E4,3.3943152E4,1.4974097E4,4.166575E4,1.686129E2,3.3472562E4,4.7059302E2,4.866324E3,1.0107772E4,4.1520645E4,1.4510359E2,8.018325E2,3.2670729E4,1.5452652E2,3.160665E2,3.0661865E3,1.8001376E3,8.743956E3,1.363817E3],"tree_param":{"num_deleted":"0","num_feature":"30","num_nodes":"23","size_leaf_vector":"1"}},{"base_weights":[8.512663E-3,-1.2274351E0,1.3927877E0,1.5519806E0,-1.3364836E0,-3.839711E-1,1.62326E0,1.7129164E0,-8.561392E-2,1.5739616E-2,-1.4404554E0,-9.698494E-1,6.6458714E-1,1.659734E0,-7.943911E-1,8.582329E-2,-5.6809533E-2,-8.5545294E-2,3.429881E-2,-7.565957E-2,-6.1284467E-3,3.820114E-2,-6.9880866E-2,4.975923E-2,-9.241962E-2,8.32377E-2,-9.186109E-2,-9.1143705E-2,9.5541306E-2],"categories":[],"categories_nodes":[],"categories_segments":[],"categories_sizes":[],"default_left":[0,0,0,0,0,0,0,0,0,0,0,0,0,0,0,0,0,0,0,0,0,0,0,0,0,0,0,0,0],"id":4,"left_children":[1,3,5,7,9,11,13,15,-1,17,19,21,23,25,27,-1,-1,-1,-1,-1,-1,-1,-1,-1,-1,-1,-1,-1,-1],"loss_changes":[1.513502E5,1.4167102E4,1.7087773E4,9.300791E2,6.3226953E3,2.9445037E3,3.2584297E3,1.8963867E1,0E0,3.7182178E3,4.0028672E3,2.2815366E3,1.4294014E3,6.4183594E2,1.532726E3,0E0,0E0,0E0,0E0,0E0,0E0,0E0,0E0,0E0,0E0,0E0,0E0,0E0,0E0],"parents":[2147483647,0,0,1,1,2,2,3,3,4,4,5,5,6,6,7,7,9,9,10,10,11,11,12,12,13,13,14,14],"right_children":[2,4,6,8,10,12,14,16,-1,18,20,22,24,26,28,-1,-1,-1,-1,-1,-1,-1,-1,-1,-1,-1,-1,-1,-1],"split_conditions":[1.144587E0,-3.5284405E0,5.979683E-1,-1.1895657E0,-1.6656148E0,7.2867227E-1,5.7259685E-1,-8.0098724E-1,-8.561392E-2,-2.0800664E-1,8.5519195E-1,-9.656333E-1,5.948181E-1,1.761454E0,1.3289038E0,8.582329E-2,-5.6809533E-2,-8.5545294E-2,3.429881E-2,-7.565957E-2,-6.1284467E-3,3.820114E-2,-6.9880866E-2,4.975923E-2,-9.241962E-2,8.32377E-2,-9.186109E-2,-9.1143705E-2,9.5541306E-2],"split_indices":[4,12,11,7,3,5,3,3,0,4,21,7,6,7,25,0,0,0,0,0,0,0,0,0,0,0,0,0,0],"split_type":[0,0,0,0,0,0,0,0,0,0,0,0,0,0,0,0,0,0,0,0,0,0,0,0,0,0,0,0,0],"sum_hessian":[8.846076E4,4.673426E4,4.17265E4,1.7638625E3,4.49704E4,4.7910024E3,3.6935496E4,1.6814388E3,8.242366E1,3.2109326E3,4.1759465E4,3.073673E3,1.7173292E3,3.638686E4,5.486386E2,1.6797438E3,1.6950942E0,8.9743414E2,2.3134983E3,3.9575113E4,2.1843535E3,6.08095E2,2.4655781E3,1.5182043E3,1.991249E2,3.6335223E4,5.163714E1,3.9774722E2,1.5089136E2],"tree_param":{"num_deleted":"0","num_feature":"30","num_nodes":"29","size_leaf_vector":"1"}},{"base_weights":[-2.8575172E-3,1.5310216E0,-1.2500732E0,1.5579615E0,-8.5647E-2,-1.5757574E0,-5.582006E-1,1.6355635E0,8.640484E-1,-4.8236522E-1,-1.604555E0,5.181102E-1,-1.1011716E0,-8.496639E-2,8.184742E-2,5.5506717E-2,-1.0260975E-1,-8.8309996E-2,6.068353E-2,-8.104632E-2,1.2526545E-2,5.550622E-2,-2.2680437E-2,-6.984488E-2,-1.3388053E-2],"categories":[],"categories_nodes":[],"categories_segments":[],"categories_sizes":[],"default_left":[0,0,0,0,0,0,0,0,0,0,0,0,0,0,0,0,0,0,0,0,0,0,0,0,0],"id":5,"left_children":[1,3,5,7,-1,9,11,13,15,17,19,21,23,-1,-1,-1,-1,-1,-1,-1,-1,-1,-1,-1,-1],"loss_changes":[1.6646162E5,3.4128516E3,1.0812945E4,2.0826016E3,0E0,1.0266406E3,8.978019E3,1.6354688E2,2.7973762E3,1.8285269E3,9.659453E2,2.9641255E3,2.5162363E3,0E0,0E0,0E0,0E0,0E0,0E0,0E0,0E0,0E0,0E0,0E0,0E0],"parents":[2147483647,0,0,1,1,2,2,3,3,5,5,6,6,7,7,8,8,9,9,10,10,11,11,12,12],"right_children":[2,4,6,8,-1,10,12,14,16,18,20,22,24,-1,-1,-1,-1,-1,-1,-1,-1,-1,-1,-1,-1],"split_conditions":[-1.8631431E0,5.2968055E-1,5.2358633E-1,-1.4172139E0,-8.5647E-2,-1.2781354E0,-5.5802804E-1,-6.8851715E-1,5.704582E-1,-8.906103E-1,2.44138E0,3.552851E-1,6.518352E-1,-8.496639E-2,8.184742E-2,5.5506717E-2,-1.0260975E-1,-8.8309996E-2,6.068353E-2,-8.104632E-2,1.2526545E-2,5.550622E-2,-2.2680437E-2,-6.984488E-2,-1.3388053E-2],"split_indices":[14,10,4,12,0,20,12,11,15,1,7,14,17,0,0,0,0,0,0,0,0,0,0,0,0],"split_type":[0,0,0,0,0,0,0,0,0,0,0,0,0,0,0,0,0,0,0,0,0,0,0,0,0],"sum_hessian":[8.701045E4,3.902079E4,4.798966E4,3.869992E4,3.208682E2,3.2628986E4,1.5360675E4,3.480611E4,3.8938118E3,8.377796E2,3.1791207E4,5.1506943E3,1.020998E4,1.3940028E1,3.4792168E4,3.5913745E3,3.0243726E2,4.768107E2,3.609689E2,3.1513225E4,2.7798257E2,3.200603E3,1.9500912E3,7.535441E3,2.6745396E3],"tree_param":{"num_deleted":"0","num_feature":"30","num_nodes":"25","size_leaf_vector":"1"}},{"base_weights":[-1.619812E-2,1.4775349E0,-1.2052408E0,-1.686528E0,1.5200365E0,-2.9322067E-1,-1.3958097E0,-8.175272E-2,-9.778639E-2,1.5313665E0,-8.6695895E-2,-1.088403E0,8.9193887E-1,-9.149905E-1,-1.5214484E0,7.930736E-2,5.171002E-2,-8.196629E-3,-8.180252E-2,6.750587E-2,-5.0902065E-2,7.7787265E-3,-6.803521E-2,-7.771339E-2,2.8765438E-2],"categories":[],"categories_nodes":[],"categories_segments":[],"categories_sizes":[],"default_left":[0,0,0,0,0,0,0,0,0,0,0,0,0,0,0,0,0,0,0,0,0,0,0,0,0],"id":6,"left_children":[1,3,5,7,9,11,13,-1,-1,15,-1,17,19,21,23,-1,-1,-1,-1,-1,-1,-1,-1,-1,-1],"loss_changes":[1.5085534E5,5.064922E3,8.218891E3,3.7229004E0,1.3721406E3,7.705171E3,2.3616562E3,0E0,0E0,1.0065469E3,0E0,2.476895E3,2.874448E3,3.868268E3,2.1349453E3,0E0,0E0,0E0,0E0,0E0,0E0,0E0,0E0,0E0,0E0],"parents":[2147483647,0,0,1,1,2,2,3,3,4,4,5,5,6,6,9,9,11,11,12,12,13,13,14,14],"right_children":[2,4,6,8,10,12,14,-1,-1,16,-1,18,20,22,24,-1,-1,-1,-1,-1,-1,-1,-1,-1,-1],"split_conditions":[-1.8631431E0,-2.0800664E-1,-3.2592314E-1,-3.4328553E-1,5.2968055E-1,7.503598E-1,-7.904762E-1,-8.175272E-2,-9.778639E-2,-3.7718112E0,-8.6695895E-2,-5.1959175E-1,2.9191332E-2,-4.438695E-1,2.4931118E0,7.930736E-2,5.171002E-2,-8.196629E-3,-8.180252E-2,6.750587E-2,-5.0902065E-2,7.7787265E-3,-6.803521E-2,-7.771339E-2,2.8765438E-2],"split_indices":[14,4,8,4,10,4,19,0,0,14,0,13,13,14,26,0,0,0,0,0,0,0,0,0,0],"split_type":[0,0,0,0,0,0,0,0,0,0,0,0,0,0,0,0,0,0,0,0,0,0,0,0,0],"sum_hessian":[8.493369E4,3.764366E4,4.7290027E4,4.9843628E2,3.7145223E4,8.1739307E3,3.9116098E4,4.2436703E2,7.406925E1,3.7016863E4,1.2836046E2,4.8918364E3,3.282094E3,8.1053213E3,3.1010775E4,3.334096E4,3.675902E3,1.8203115E3,3.071525E3,2.6473289E3,6.347653E2,2.3827693E3,5.722552E3,3.0533115E4,4.7765976E2],"tree_param":{"num_deleted":"0","num_feature":"30","num_nodes":"25","size_leaf_vector":"1"}},{"base_weights":[2.6844276E-2,1.4407705E0,-1.147801E0,-7.924498E-2,1.4734656E0,-1.3198274E0,-8.428359E-2,1.4877602E0,-8.5848965E-2,-1.3666577E0,7.134812E-1,1.4294884E0,-5.0360316E-1,7.496889E-2,-8.356377E-2,-3.8185284E-2,-7.299643E-2,7.7061355E-2,-8.298024E-2,8.03518E-2,-8.9370035E-2,8.565403E-3,-7.014073E-2],"categories":[],"categories_nodes":[],"categories_segments":[],"categories_sizes":[],"default_left":[0,0,0,0,0,0,0,0,0,0,0,0,0,0,0,0,0,0,0,0,0,0,0],"id":7,"left_children":[1,3,5,-1,7,9,11,13,-1,15,17,19,21,-1,-1,-1,-1,-1,-1,-1,-1,-1,-1],"loss_changes":[1.4190973E5,3.8378984E3,8.538453E3,0E0,1.7519453E3,3.8262344E3,4.126055E3,1.4040156E3,0E0,2.2072656E3,1.7803938E3,8.082092E2,3.089349E3,0E0,0E0,0E0,0E0,0E0,0E0,0E0,0E0,0E0,0E0],"parents":[2147483647,0,0,1,1,2,2,4,4,5,5,6,6,7,7,9,9,10,10,11,11,12,12],"right_children":[2,4,6,-1,8,10,12,14,-1,16,18,20,22,-1,-1,-1,-1,-1,-1,-1,-1,-1,-1],"split_conditions":[-1.8631431E0,-3.4328553E-1,1.144587E0,-7.924498E-2,1.0180852E0,2.020089E0,-1.5739322E0,5.2968055E-1,-8.5848965E-2,-8.41771E-1,-6.9179296E-1,-8.254729E-2,-2.3965034E-1,7.496889E-2,-8.356377E-2,-3.8185284E-2,-7.299643E-2,7.7061355E-2,-8.298024E-2,8.03518E-2,-8.9370035E-2,8.565403E-3,-7.014073E-2],"split_indices":[14,4,4,0,1,7,8,10,0,14,26,13,12,0,0,0,0,0,0,0,0,0,0],"split_type":[0,0,0,0,0,0,0,0,0,0,0,0,0,0,0,0,0,0,0,0,0,0,0],"sum_hessian":[8.544144E4,3.877162E4,4.6669816E4,4.1397644E2,3.835765E4,4.0171707E4,6.4981064E3,3.8187086E4,1.7056175E2,3.926764E4,9.0406793E2,1.4090244E3,5.089082E3,3.8047688E4,1.3939731E2,5.2617944E3,3.4005848E4,6.705328E2,2.3353513E2,1.335799E3,7.3225426E1,2.9075806E3,2.1815015E3],"tree_param":{"num_deleted":"0","num_feature":"30","num_nodes":"23","size_leaf_vector":"1"}},{"base_weights":[3.1282404E-3,1.401363E0,-1.1132753E0,1.4258654E0,-7.771102E-2,-1.2779421E0,1.3392013E-1,1.501626E0,8.203727E-1,-1.3108474E0,6.883237E-1,5.768025E-1,-1.0347183E0,7.514151E-2,-8.435774E-2,7.609652E-3,7.298027E-2,-3.503184E-2,-7.0440635E-2,-8.2753286E-2,8.096441E-2,4.1808944E-2,-8.504835E-2,-8.544627E-2,4.4471502E-2],"categories":[],"categories_nodes":[],"categories_segments":[],"categories_sizes":[],"default_left":[0,0,0,0,0,0,0,0,0,0,0,0,0,0,0,0,0,0,0,0,0,0,0,0,0],"id":8,"left_children":[1,3,5,7,-1,9,11,13,15,17,19,21,23,-1,-1,-1,-1,-1,-1,-1,-1,-1,-1,-1,-1],"loss_changes":[1.2868243E5,2.6526328E3,9.41393E3,1.6638516E3,0E0,2.6207422E3,2.7680376E3,1.26421875E2,1.7248545E3,2.3797578E3,1.4580942E3,2.2926387E3,1.908297E3,0E0,0E0,0E0,0E0,0E0,0E0,0E0,0E0,0E0,0E0,0E0,0E0],"parents":[2147483647,0,0,1,1,2,2,3,3,5,5,6,6,7,7,8,8,9,9,10,10,11,11,12,12],"right_children":[2,4,6,8,-1,10,12,14,16,18,20,22,24,-1,-1,-1,-1,-1,-1,-1,-1,-1,-1,-1,-1],"split_conditions":[-1.8631431E0,5.2968055E-1,1.5446726E0,-1.4172139E0,-7.771102E-2,2.44138E0,5.7259685E-1,-3.1124276E-1,1.3390442E0,-8.41771E-1,8.37901E-1,8.8900024E-1,6.6440266E-1,7.514151E-2,-8.435774E-2,7.609652E-3,7.298027E-2,-3.503184E-2,-7.0440635E-2,-8.2753286E-2,8.096441E-2,4.1808944E-2,-8.504835E-2,-8.544627E-2,4.4471502E-2],"split_indices":[14,10,4,12,0,7,3,3,4,14,19,1,28,0,0,0,0,0,0,0,0,0,0,0,0],"split_type":[0,0,0,0,0,0,0,0,0,0,0,0,0,0,0,0,0,0,0,0,0,0,0,0,0],"sum_hessian":[8.2434195E4,3.6597523E4,4.5836668E4,3.6297133E4,3.003925E2,4.0490676E4,5.345995E3,3.2259297E4,4.037835E3,3.9824547E4,6.661278E2,3.8771619E3,1.4688331E3,3.2247648E4,1.1649812E1,1.9748226E3,2.0630122E3,5.510241E3,3.4314305E4,1.8917236E2,4.7695547E2,3.4813618E3,3.9580014E2,1.0877911E3,3.81042E2],"tree_param":{"num_deleted":"0","num_feature":"30","num_nodes":"25","size_leaf_vector":"1"}},{"base_weights":[-1.550656E-3,1.361651E0,-1.0536339E0,1.4625248E0,6.597411E-1,-1.339065E0,-4.5250255E-1,-8.0707125E-2,1.4652473E0,-4.014655E-2,1.3738296E0,-1.4164685E0,-4.0318012E-1,7.1371377E-1,-7.4344665E-1,-1.0394362E-1,7.3292054E-2,2.8363934E-2,-9.757288E-2,-1.1410401E-1,7.134908E-2,-3.7488524E-2,-7.361767E-2,4.1756894E-2,-7.566712E-2,4.763348E-2,-8.142153E-2,-7.4578356E-4,-5.9784766E-2],"categories":[],"categories_nodes":[],"categories_segments":[],"categories_sizes":[],"default_left":[0,0,0,0,0,0,0,0,0,0,0,0,0,0,0,0,0,0,0,0,0,0,0,0,0,0,0,0,0],"id":9,"left_children":[1,3,5,7,9,11,13,-1,15,17,19,21,23,25,27,-1,-1,-1,-1,-1,-1,-1,-1,-1,-1,-1,-1,-1,-1],"loss_changes":[1.1513924E5,2.4750586E3,7.7739414E3,2.5847656E2,2.1970825E3,2.225004E3,4.9508184E3,0E0,6.7328125E1,2.579679E3,4.2608203E2,1.0561094E3,3.2294827E3,1.6321655E3,3.8472905E3,0E0,0E0,0E0,0E0,0E0,0E0,0E0,0E0,0E0,0E0,0E0,0E0,0E0,0E0],"parents":[2147483647,0,0,1,1,2,2,3,3,4,4,5,5,6,6,8,8,9,9,10,10,11,11,12,12,13,13,14,14],"right_children":[2,4,6,8,10,12,14,-1,16,18,20,22,24,26,28,-1,-1,-1,-1,-1,-1,-1,-1,-1,-1,-1,-1,-1,-1],"split_conditions":[-1.8631431E0,-1.7335463E0,5.2358633E-1,-2.0800664E-1,1.8630875E0,8.6526734E-1,-8.615503E-1,-8.0707125E-2,-4.7467467E-1,5.5530887E-2,-1.9469533E-2,-9.9833876E-1,-6.9179296E-1,8.1711257E-1,-9.721678E-2,-1.0394362E-1,7.3292054E-2,2.8363934E-2,-9.757288E-2,-1.1410401E-1,7.134908E-2,-3.7488524E-2,-7.361767E-2,4.1756894E-2,-7.566712E-2,4.763348E-2,-8.142153E-2,-7.4578356E-4,-5.9784766E-2],"split_indices":[14,10,4,4,4,29,14,0,11,27,11,6,26,9,8,0,0,0,0,0,0,0,0,0,0,0,0,0,0],"split_type":[0,0,0,0,0,0,0,0,0,0,0,0,0,0,0,0,0,0,0,0,0,0,0,0,0,0,0,0,0],"sum_hessian":[8.027908E4,3.4968945E4,4.531013E4,3.057397E4,4.394974E3,3.0721586E4,1.4588545E4,2.6507977E1,3.0547463E4,2.2200334E3,2.1749407E3,2.8374336E4,2.34725E3,2.9125332E3,1.1676012E4,4.5304675E0,3.0542934E4,1.6851779E3,5.348557E2,3.0566551E1,2.144374E3,2.1955935E3,2.6178742E4,1.1096978E3,1.2375522E3,2.6434321E3,2.6910123E2,4.4724077E3,7.203604E3],"tree_param":{"num_deleted":"0","num_feature":"30","num_nodes":"29","size_leaf_vector":"1"}},{"base_weights":[2.6610643E-2,1.3354963E0,-1.0320654E0,1.3659847E0,-8.96085E-1,-1.3380013E0,-4.105558E-1,1.4333167E0,8.429861E-1,1.298306E0,-1.7515783E0,-1.4191333E0,-6.065167E-1,5.011792E-1,-8.661618E-1,-8.161954E-2,7.170556E-2,4.9799558E-2,-9.594395E-2,-7.224674E-2,7.391139E-2,-7.5302176E-2,-1.0193621E-1,-7.192487E-2,4.32073E-2,-6.274198E-2,4.207049E-2,5.4377902E-2,-3.3791523E-2,1.4869484E-2,-5.653877E-2],"categories":[],"categories_nodes":[],"categories_segments":[],"categories_sizes":[],"default_left":[0,0,0,0,0,0,0,0,0,0,0,0,0,0,0,0,0,0,0,0,0,0,0,0,0,0,0,0,0,0,0],"id":10,"left_children":[1,3,5,7,9,11,13,15,17,19,21,23,25,27,29,-1,-1,-1,-1,-1,-1,-1,-1,-1,-1,-1,-1,-1,-1,-1,-1],"loss_changes":[1.1110642E5,2.440625E3,8.428008E3,1.2443672E3,9.1058984E2,1.7620273E3,6.0750366E3,7.866016E1,1.7077712E3,6.940582E1,2.1504028E1,1.1834453E3,2.7867139E3,3.3642021E3,3.0027178E3,0E0,0E0,0E0,0E0,0E0,0E0,0E0,0E0,0E0,0E0,0E0,0E0,0E0,0E0,0E0,0E0],"parents":[2147483647,0,0,1,1,2,2,3,3,4,4,5,5,6,6,7,7,8,8,9,9,10,10,11,11,12,12,13,13,14,14],"right_children":[2,4,6,8,10,12,14,16,18,20,22,24,26,28,30,-1,-1,-1,-1,-1,-1,-1,-1,-1,-1,-1,-1,-1,-1,-1,-1],"split_conditions":[-1.8631431E0,-1.1396102E-1,5.2358633E-1,-1.4172139E0,-3.5015085E-1,9.147283E-1,-5.7303035E-1,-6.8851715E-1,9.876643E-1,1.8630875E0,-3.4328553E-1,2.4649773E0,1.0861687E-1,3.552851E-1,-3.4707233E-1,-8.161954E-2,7.170556E-2,4.9799558E-2,-9.594395E-2,-7.224674E-2,7.391139E-2,-7.5302176E-2,-1.0193621E-1,-7.192487E-2,4.32073E-2,-6.274198E-2,4.207049E-2,5.4377902E-2,-3.3791523E-2,1.4869484E-2,-5.653877E-2],"split_indices":[14,3,4,12,29,7,12,11,26,4,4,22,4,14,29,0,0,0,0,0,0,0,0,0,0,0,0,0,0,0,0],"split_type":[0,0,0,0,0,0,0,0,0,0,0,0,0,0,0,0,0,0,0,0,0,0,0,0,0,0,0,0,0,0,0],"sum_hessian":[8.017954E4,3.5852867E4,4.432667E4,3.5370023E4,4.8284497E2,2.9703885E4,1.4622787E4,3.1334244E4,4.0357798E3,1.3529294E2,3.4755203E2,2.6737389E4,2.966495E3,4.8723647E3,9.750423E3,7.5857043E0,3.1326658E4,3.8245425E3,2.1123715E2,7.8945746E0,1.2739837E2,1.9071712E2,1.5683492E2,2.6512908E4,2.2448192E2,2.049117E3,9.173782E2,3.2522102E3,1.6201544E3,1.8065573E3,7.943865E3],"tree_param":{"num_deleted":"0","num_feature":"30","num_nodes":"31","size_leaf_vector":"1"}},{"base_weights":[1.9786408E-2,1.2975783E0,-9.828861E-1,-7.5045854E-2,1.3304715E0,-1.2881043E0,-3.7290797E-1,1.3496139E0,-1.7827874E0,-1.3680687E0,-3.6217073E-1,7.912469E-1,-6.979003E-1,6.804472E-2,-7.817071E-2,-1.14984624E-1,-8.25197E-2,-3.9916094E-2,-7.034522E-2,3.996163E-2,-7.242433E-2,5.7321906E-2,-8.0062464E-2,3.292535E-3,-6.044056E-2],"categories":[],"categories_nodes":[],"categories_segments":[],"categories_sizes":[],"default_left":[0,0,0,0,0,0,0,0,0,0,0,0,0,0,0,0,0,0,0,0,0,0,0,0,0],"id":11,"left_children":[1,3,5,-1,7,9,11,13,15,17,19,21,23,-1,-1,-1,-1,-1,-1,-1,-1,-1,-1,-1,-1],"loss_changes":[9.991396E4,3.1582656E3,8.1347227E3,0E0,2.0220977E3,2.155832E3,5.5145415E3,1.109E3,1.040741E1,5.9203906E2,2.9237944E3,2.7051401E3,4.4461084E3,0E0,0E0,0E0,0E0,0E0,0E0,0E0,0E0,0E0,0E0,0E0,0E0],"parents":[2147483647,0,0,1,1,2,2,4,4,5,5,6,6,7,7,8,8,9,9,10,10,11,11,12,12],"right_children":[2,4,6,-1,8,10,12,14,16,18,20,22,24,-1,-1,-1,-1,-1,-1,-1,-1,-1,-1,-1,-1],"split_conditions":[-1.8631431E0,-3.4328553E-1,5.2358633E-1,-7.5045854E-2,9.7916484E-1,8.6526734E-1,-8.41771E-1,5.2968055E-1,1.0180852E0,-1.5679529E0,-6.9179296E-1,4.3405455E-1,-9.721678E-2,6.804472E-2,-7.817071E-2,-1.14984624E-1,-8.25197E-2,-3.9916094E-2,-7.034522E-2,3.996163E-2,-7.242433E-2,5.7321906E-2,-8.0062464E-2,3.292535E-3,-6.044056E-2],"split_indices":[14,4,4,0,1,29,14,10,1,13,26,9,8,0,0,0,0,0,0,0,0,0,0,0,0],"split_type":[0,0,0,0,0,0,0,0,0,0,0,0,0,0,0,0,0,0,0,0,0,0,0,0,0],"sum_hessian":[7.7982266E4,3.4287043E4,4.3695223E4,3.9780573E2,3.3889234E4,2.9122115E4,1.457311E4,3.36827E4,2.0653679E2,2.6806596E4,2.3155178E3,3.1801309E3,1.13929795E4,3.3553297E4,1.2940108E2,3.8775394E1,1.6776138E2,1.711996E3,2.50946E4,1.1192104E3,1.1963074E3,2.7694915E3,4.1063928E2,4.5668906E3,6.8260884E3],"tree_param":{"num_deleted":"0","num_feature":"30","num_nodes":"25","size_leaf_vector":"1"}},{"base_weights":[2.6059913E-2,1.2020983E0,-9.745883E-1,1.3756524E0,3.9020458E-1,-1.2548676E-1,-1.1229187E0,1.3772695E0,-7.394051E-2,-7.5614564E-2,7.115262E-1,5.500618E-1,-1.2998619E0,-5.064759E-3,-1.2001308E0,6.889246E-2,-1.08679116E-1,4.164803E-2,-9.115359E-2,5.120737E-2,-1.2158282E-2,-7.39148E-2,6.0056176E-2,4.0628456E-2,-7.233267E-2,-6.276267E-2,9.783601E-3],"categories":[],"categories_nodes":[],"categories_segments":[],"categories_sizes":[],"default_left":[0,0,0,0,0,0,0,0,0,0,0,0,0,0,0,0,0,0,0,0,0,0,0,0,0,0,0],"id":12,"left_children":[1,3,5,7,9,11,13,15,-1,-1,17,19,21,23,25,-1,-1,-1,-1,-1,-1,-1,-1,-1,-1,-1,-1],"loss_changes":[8.970585E4,4.9373125E3,5.1870664E3,1.3529688E2,3.7747703E3,4.8606885E3,3.0261328E3,6.2382812E1,0E0,0E0,1.6271958E3,1.462953E3,1.0002107E3,2.672364E3,2.5235273E3,0E0,0E0,0E0,0E0,0E0,0E0,0E0,0E0,0E0,0E0,0E0,0E0],"parents":[2147483647,0,0,1,1,2,2,3,3,4,4,5,5,6,6,7,7,10,10,11,11,12,12,13,13,14,14],"right_children":[2,4,6,8,10,12,14,16,-1,-1,18,20,22,24,26,-1,-1,-1,-1,-1,-1,-1,-1,-1,-1,-1,-1],"split_conditions":[-1.3940638E0,-1.9431003E0,-3.688842E-1,5.2968055E-1,8.289957E-1,-1.2822036E-1,-1.8088108E0,6.444992E-1,-7.394051E-2,-7.5614564E-2,3.4939545E-1,-1.3516805E-1,2.5615036E0,-2.3073158E-1,1.2246553E0,6.889246E-2,-1.08679116E-1,4.164803E-2,-9.115359E-2,5.120737E-2,-1.2158282E-2,-7.39148E-2,6.0056176E-2,4.0628456E-2,-7.233267E-2,-6.276267E-2,9.783601E-3],"split_indices":[14,12,8,10,17,13,19,1,0,0,8,25,17,12,23,0,0,0,0,0,0,0,0,0,0,0,0],"split_type":[0,0,0,0,0,0,0,0,0,0,0,0,0,0,0,0,0,0,0,0,0,0,0,0,0,0,0],"sum_hessian":[7.622659E4,3.504216E4,4.118443E4,2.8870064E4,6.172096E3,6.1249077E3,3.5059523E4,2.8854236E4,1.5828666E1,8.912769E2,5.2808193E3,3.888573E3,2.2363345E3,2.2652317E3,3.2794293E4,2.8850139E4,4.097172E0,5.04002E3,2.4079959E2,2.4337253E3,1.4548477E3,2.087789E3,1.4854547E2,1.4457015E3,8.195302E2,3.154849E4,1.2458022E3],"tree_param":{"num_deleted":"0","num_feature":"30","num_nodes":"27","size_leaf_vector":"1"}},{"base_weights":[4.5912373E-3,1.2467443E0,-9.411296E-1,1.3492786E0,4.9697223E-1,-1.2297187E0,-3.7081432E-1,-1.7826662E0,1.3524183E0,9.315786E-1,-3.674948E-1,-1.2931819E0,-4.5870888E-1,7.656245E-1,-7.089805E-1,-6.654534E-2,-1.0327877E-1,6.76976E-2,-6.818398E-2,-9.006754E-2,5.501001E-2,5.421259E-2,-6.5869704E-2,-6.5604344E-2,3.625163E-2,6.567328E-2,-4.3279644E-2,8.720309E-3,7.5699165E-2,6.661907E-3,-5.7813466E-2],"categories":[],"categories_nodes":[],"categories_segments":[],"categories_sizes":[],"default_left":[0,0,0,0,0,0,0,0,0,0,0,0,0,0,0,0,0,0,0,0,0,0,0,0,0,0,0,0,0,0,0],"id":13,"left_children":[1,3,5,7,9,11,13,15,17,19,21,23,25,27,29,-1,-1,-1,-1,-1,-1,-1,-1,-1,-1,-1,-1,-1,-1,-1,-1],"loss_changes":[8.624295E4,2.4389648E3,6.8596875E3,2.7691797E2,1.4352515E3,1.3536094E3,5.383166E3,8.7914276E-1,1.1800391E2,1.1733264E3,1.7644365E3,9.7658594E2,1.5199641E3,1.4210659E3,4.0666646E3,0E0,0E0,0E0,0E0,0E0,0E0,0E0,0E0,0E0,0E0,0E0,0E0,0E0,0E0,0E0,0E0],"parents":[2147483647,0,0,1,1,2,2,3,3,4,4,5,5,6,6,7,7,8,8,9,9,10,10,11,11,12,12,13,13,14,14],"right_children":[2,4,6,8,10,12,14,16,18,20,22,24,26,28,30,-1,-1,-1,-1,-1,-1,-1,-1,-1,-1,-1,-1,-1,-1,-1,-1],"split_conditions":[-1.8631431E0,-1.4172139E0,5.2358633E-1,9.005364E-2,-1.6125764E-1,8.6526734E-1,-3.4707233E-1,-3.5194054E-1,5.2968055E-1,-1.5396763E-1,-4.0773702E-1,2.4649773E0,-1.3448716E0,1.0842073E0,-4.4839177E-1,-6.654534E-2,-1.0327877E-1,6.76976E-2,-6.818398E-2,-9.006754E-2,5.501001E-2,5.421259E-2,-6.5869704E-2,-6.5604344E-2,3.625163E-2,6.567328E-2,-4.3279644E-2,8.720309E-3,7.5699165E-2,6.661907E-3,-5.7813466E-2],"split_indices":[14,12,4,11,22,29,29,4,10,28,5,22,13,11,12,0,0,0,0,0,0,0,0,0,0,0,0,0,0,0,0],"split_type":[0,0,0,0,0,0,0,0,0,0,0,0,0,0,0,0,0,0,0,0,0,0,0,0,0,0,0,0,0,0,0],"sum_hessian":[7.3413125E4,3.1733102E4,4.1680023E4,2.7914836E4,3.818266E3,2.7674908E4,1.4005117E4,2.7388372E1,2.7887447E4,2.5408096E3,1.2774565E3,2.5569555E4,2.1053535E3,3.2114563E3,1.0793661E4,1.2743481E1,1.4644892E1,2.7872213E4,1.5235739E1,1.4709464E2,2.3937148E3,5.0520383E2,7.722527E2,2.5332607E4,2.3694571E2,3.927055E2,1.7126481E3,1.7947786E3,1.4166777E3,3.7442185E3,7.0494424E3],"tree_param":{"num_deleted":"0","num_feature":"30","num_nodes":"31","size_leaf_vector":"1"}},{"base_weights":[1.4739718E-2,1.1623558E0,-9.6273893E-1,-7.329678E-1,1.2476319E0,-1.1296991E0,-1.87479E-1,7.437133E-1,-1.4959434E0,-1.6993805E0,1.2696381E0,-1.9436948E-1,-1.2255093E0,5.21764E-1,-8.76052E-1,6.500616E-2,-9.074399E-2,-7.092951E-2,-8.4220074E-2,-9.9787645E-2,-7.52935E-2,6.3998796E-2,-7.798111E-2,7.314876E-2,-4.3120198E-2,-4.014611E-2,-6.513629E-2,5.3227544E-2,-3.248381E-2,3.942832E-2,-7.2660975E-2],"categories":[],"categories_nodes":[],"categories_segments":[],"categories_sizes":[],"default_left":[0,0,0,0,0,0,0,0,0,0,0,0,0,0,0,0,0,0,0,0,0,0,0,0,0,0,0,0,0,0,0],"id":14,"left_children":[1,3,5,7,9,11,13,15,17,19,21,23,25,27,29,-1,-1,-1,-1,-1,-1,-1,-1,-1,-1,-1,-1,-1,-1,-1,-1],"loss_changes":[8.096247E4,5.3665312E3,5.044754E3,1.6122333E3,2.0624414E3,2.8736328E3,3.3739463E3,6.9682556E2,1.1359863E1,1.0523621E1,9.243086E2,3.301682E3,9.4816016E2,2.1647236E3,3.3689143E3,0E0,0E0,0E0,0E0,0E0,0E0,0E0,0E0,0E0,0E0,0E0,0E0,0E0,0E0,0E0,0E0],"parents":[2147483647,0,0,1,1,2,2,3,3,4,4,5,5,6,6,7,7,8,8,9,9,10,10,11,11,12,12,13,13,14,14],"right_children":[2,4,6,8,10,12,14,16,18,20,22,24,26,28,30,-1,-1,-1,-1,-1,-1,-1,-1,-1,-1,-1,-1,-1,-1,-1,-1],"split_conditions":[-1.4416832E0,8.3458036E-2,9.8421913E-1,-1.4709982E0,-5.2000767E-1,-1.5076628E0,-4.4839177E-1,1.6897543E-1,-3.4328553E-1,-1.8631431E0,5.2968055E-1,-5.0581276E-1,-6.7656547E-1,2.8934357E-1,-3.4707233E-1,6.500616E-2,-9.074399E-2,-7.092951E-2,-8.4220074E-2,-9.9787645E-2,-7.52935E-2,6.3998796E-2,-7.798111E-2,7.314876E-2,-4.3120198E-2,-4.014611E-2,-6.513629E-2,5.3227544E-2,-3.248381E-2,3.942832E-2,-7.2660975E-2],"split_indices":[14,4,4,10,11,13,12,16,4,14,10,8,14,14,29,0,0,0,0,0,0,0,0,0,0,0,0,0,0,0,0],"split_type":[0,0,0,0,0,0,0,0,0,0,0,0,0,0,0,0,0,0,0,0,0,0,0,0,0,0,0,0,0,0,0],"sum_hessian":[7.217185E4,3.3196758E4,3.897509E4,1.4289827E3,3.1767775E4,3.2068377E4,6.906713E3,4.8681485E2,9.421678E2,2.3489616E2,3.1532879E4,2.97997E3,2.9088406E4,3.40241E3,3.5043032E3,4.0026273E2,8.655212E1,6.7403534E2,2.6813248E2,8.9108315E1,1.4578784E2,3.1418627E4,1.142522E2,8.5574335E2,2.1242268E3,4.495738E3,2.459267E4,2.325145E3,1.0772649E3,9.021195E2,2.6021838E3],"tree_param":{"num_deleted":"0","num_feature":"30","num_nodes":"31","size_leaf_vector":"1"}},{"base_weights":[2.7489226E-2,1.159153E0,-7.512873E-1,1.2675009E0,-8.183783E-1,3.9602383E-3,-8.9231193E-1,1.2943757E0,-5.888391E-1,2.2081606E0,-1.1563396E0,5.672948E-1,-1.2516867E0,3.071866E-2,-1.048503E0,6.495136E-2,-7.193616E-2,6.686016E-2,-6.937953E-2,-7.764598E-2,1.2598743E-1,7.111814E-2,-7.1444005E-2,5.4111462E-2,4.7090305E-3,-7.1247175E-2,2.3049006E-2,-4.2001452E-2,4.16E-2,-5.4898668E-2,4.2764615E-2],"categories":[],"categories_nodes":[],"categories_segments":[],"categories_sizes":[],"default_left":[0,0,0,0,0,0,0,0,0,0,0,0,0,0,0,0,0,0,0,0,0,0,0,0,0,0,0,0,0,0,0],"id":15,"left_children":[1,3,5,7,9,11,13,15,17,19,21,23,25,27,29,-1,-1,-1,-1,-1,-1,-1,-1,-1,-1,-1,-1,-1,-1,-1,-1],"loss_changes":[6.2248543E4,6.1701367E3,4.4562344E3,1.3625898E3,1.5329327E3,4.6580474E3,5.0828516E3,3.4396484E2,6.022089E2,1.8044257E2,9.483906E2,1.1073545E3,6.0581836E2,3.561422E3,2.8408398E3,0E0,0E0,0E0,0E0,0E0,0E0,0E0,0E0,0E0,0E0,0E0,0E0,0E0,0E0,0E0,0E0],"parents":[2147483647,0,0,1,1,2,2,3,3,4,4,5,5,6,6,7,7,8,8,9,9,10,10,11,11,12,12,13,13,14,14],"right_children":[2,4,6,8,10,12,14,16,18,20,22,24,26,28,30,-1,-1,-1,-1,-1,-1,-1,-1,-1,-1,-1,-1,-1,-1,-1,-1],"split_conditions":[-1.9431003E0,-1.1396102E-1,-3.688842E-1,1.1511099E0,-3.0106797E0,-8.254729E-2,-1.31477E0,1.0008093E0,-6.1443105E0,6.252963E-2,-3.2610219E0,-2.2966107E-2,2.4394753E0,4.48161E-1,2.1664548E0,6.495136E-2,-7.193616E-2,6.686016E-2,-6.937953E-2,-7.764598E-2,1.2598743E-1,7.111814E-2,-7.1444005E-2,5.4111462E-2,4.7090305E-3,-7.1247175E-2,2.3049006E-2,-4.2001452E-2,4.16E-2,-5.4898668E-2,4.2764615E-2],"split_indices":[12,3,8,9,19,13,19,1,8,24,16,2,25,2,11,0,0,0,0,0,0,0,0,0,0,0,0,0,0,0,0],"split_type":[0,0,0,0,0,0,0,0,0,0,0,0,0,0,0,0,0,0,0,0,0,0,0,0,0,0,0,0,0,0,0],"sum_hessian":[7.062959E4,2.879142E4,4.1838176E4,2.7296234E4,1.4951866E3,6.5832114E3,3.525496E4,2.6906996E4,3.89238E2,1.4963443E2,1.3455522E3,4.5447837E3,2.0384276E3,5.1024146E3,3.0152549E4,2.6861803E4,4.5192677E1,1.13904396E2,2.7533362E2,1.1143299E1,1.3849113E2,1.2821342E2,1.2173387E3,2.1755938E3,2.36919E3,1.8513131E3,1.8711449E2,2.4451912E3,2.6572234E3,2.9389287E4,7.632602E2],"tree_param":{"num_deleted":"0","num_feature":"30","num_nodes":"31","size_leaf_vector":"1"}},{"base_weights":[4.1517373E-3,1.1814753E0,-8.998643E-1,1.2838097E0,4.2109656E-1,-1.11052E0,-2.364915E-2,-7.118269E-2,1.2863345E0,-1.8232842E-1,1.1773986E0,-1.1488839E0,8.0683863E-1,2.9920956E-1,-1.5032686E0,6.436586E-2,-6.6263184E-2,2.2110196E-2,-9.482857E-2,6.426587E-2,-1.13919616E-1,-6.0165305E-2,-4.8298184E-3,-7.3325366E-2,7.670358E-2,3.289453E-2,-5.4480534E-2,-8.414192E-2,-7.105862E-2],"categories":[],"categories_nodes":[],"categories_segments":[],"categories_sizes":[],"default_left":[0,0,0,0,0,0,0,0,0,0,0,0,0,0,0,0,0,0,0,0,0,0,0,0,0,0,0,0,0],"id":16,"left_children":[1,3,5,7,9,11,13,-1,15,17,19,21,23,25,27,-1,-1,-1,-1,-1,-1,-1,-1,-1,-1,-1,-1,-1,-1],"loss_changes":[7.260718E4,2.3051016E3,7.122672E3,1.8035938E2,1.6049309E3,2.2892578E3,3.5738174E3,0E0,6.865625E1,2.0956396E3,5.849424E2,1.7465352E3,1.0121217E3,3.0599219E3,1.7363037E1,0E0,0E0,0E0,0E0,0E0,0E0,0E0,0E0,0E0,0E0,0E0,0E0,0E0,0E0],"parents":[2147483647,0,0,1,1,2,2,3,3,4,4,5,5,6,6,8,8,9,9,10,10,11,11,12,12,13,13,14,14],"right_children":[2,4,6,8,10,12,14,-1,16,18,20,22,24,26,28,-1,-1,-1,-1,-1,-1,-1,-1,-1,-1,-1,-1,-1,-1],"split_conditions":[-1.8631431E0,-1.4172139E0,9.8421913E-1,-7.3312595E-2,1.3390442E0,2.44138E0,8.4266853E-1,-7.118269E-2,4.1697216E-1,5.039514E-2,1.1624525E-1,9.226787E-1,8.37901E-1,5.5848616E-1,-5.5802804E-1,6.436586E-2,-6.6263184E-2,2.2110196E-2,-9.482857E-2,6.426587E-2,-1.13919616E-1,-6.0165305E-2,-4.8298184E-3,-7.3325366E-2,7.670358E-2,3.289453E-2,-5.4480534E-2,-8.414192E-2,-7.105862E-2],"split_indices":[14,12,4,4,4,7,3,0,10,27,23,21,19,1,12,0,0,0,0,0,0,0,0,0,0,0,0,0,0],"split_type":[0,0,0,0,0,0,0,0,0,0,0,0,0,0,0,0,0,0,0,0,0,0,0,0,0,0,0,0,0],"sum_hessian":[6.821736E4,2.9629625E4,3.8587734E4,2.6114375E4,3.5152498E3,3.1108504E4,7.479233E3,2.3806715E1,2.6090568E4,1.9556605E3,1.5595892E3,3.0498664E4,6.0983966E2,6.1402124E3,1.3390204E3,2.6081264E4,9.305388E0,1.4339767E3,5.216838E2,1.5129696E3,4.6619537E1,2.8998764E4,1.4998992E3,1.4755693E2,4.6228275E2,4.8803296E3,1.2598827E3,4.1399274E2,9.2502765E2],"tree_param":{"num_deleted":"0","num_feature":"30","num_nodes":"29","size_leaf_vector":"1"}},{"base_weights":[1.7252075E-4,1.1091062E0,-9.664531E-1,1.2670012E0,2.939929E-1,4.7612607E-1,-1.0410041E0,1.2700878E0,-7.006717E-2,-7.0144325E-2,5.5914444E-1,8.9470476E-1,-7.224748E-2,-1.1210678E0,-1.497163E-1,-7.2422266E-2,6.358977E-2,-7.8370534E-2,3.6438715E-2,6.3304566E-2,-6.898942E-2,-3.6646493E-2,-6.3574545E-2,5.4510213E-2,-3.1735253E-2],"categories":[],"categories_nodes":[],"categories_segments":[],"categories_sizes":[],"default_left":[0,0,0,0,0,0,0,0,0,0,0,0,0,0,0,0,0,0,0,0,0,0,0,0,0],"id":17,"left_children":[1,3,5,7,9,11,13,15,-1,-1,17,19,-1,21,23,-1,-1,-1,-1,-1,-1,-1,-1,-1,-1],"loss_changes":[7.125279E4,3.9838867E3,3.819957E3,2.15375E2,2.2616294E3,1.4051768E3,2.4096367E3,1.22078125E2,0E0,0E0,1.569052E3,1.213182E3,0E0,1.8081992E3,1.6752277E3,0E0,0E0,0E0,0E0,0E0,0E0,0E0,0E0,0E0,0E0],"parents":[2147483647,0,0,1,1,2,2,3,3,4,4,5,5,6,6,7,7,10,10,11,11,13,13,14,14],"right_children":[2,4,6,8,10,12,14,16,-1,-1,18,20,-1,22,24,-1,-1,-1,-1,-1,-1,-1,-1,-1,-1],"split_conditions":[-1.4416832E0,-1.4172139E0,-3.5015085E-1,5.2968055E-1,7.768492E-1,4.5716792E-1,1.0948462E0,-6.767626E-1,-7.006717E-2,-7.0144325E-2,6.596489E-2,1.8632552E-1,-7.224748E-2,-4.1304147E-1,-1.2126896E0,-7.2422266E-2,6.358977E-2,-7.8370534E-2,3.6438715E-2,6.3304566E-2,-6.898942E-2,-3.6646493E-2,-6.3574545E-2,5.4510213E-2,-3.1735253E-2],"split_indices":[14,12,29,10,17,16,7,11,0,0,18,7,0,12,13,0,0,0,0,0,0,0,0,0,0],"split_type":[0,0,0,0,0,0,0,0,0,0,0,0,0,0,0,0,0,0,0,0,0,0,0,0,0],"sum_hessian":[6.646989E4,3.0956166E4,3.5513727E4,2.5932287E4,5.0238784E3,1.7448607E3,3.3768863E4,2.5902848E4,2.9440756E1,6.7835394E2,4.3455244E3,1.4331329E3,3.1172772E2,3.0985227E4,2.7836392E3,1.5726423E1,2.5887121E4,3.2041534E2,4.0251091E3,1.2323536E3,2.0077931E2,8.655989E3,2.2329236E4,7.823185E2,2.0013206E3],"tree_param":{"num_deleted":"0","num_feature":"30","num_nodes":"25","size_leaf_vector":"1"}},{"base_weights":[4.48968E-2,1.0941975E0,-8.5452497E-1,5.140671E-2,1.2037762E0,-9.9432427E-1,3.1203392E-1,6.780268E-1,-1.4356108E0,1.2155535E0,-7.490239E-2,5.614104E-1,-1.0661185E0,-5.053298E-1,1.1384017E0,6.272772E-2,-2.0705516E-2,-7.927436E-2,-6.633889E-2,-7.9695426E-2,6.1039623E-2,6.504301E-2,-7.002846E-2,-5.710875E-2,-2.3034642E-2,5.855626E-2,-6.0004383E-2,6.348606E-2,-7.546087E-2],"categories":[],"categories_nodes":[],"categories_segments":[],"categories_sizes":[],"default_left":[0,0,0,0,0,0,0,0,0,0,0,0,0,0,0,0,0,0,0,0,0,0,0,0,0,0,0,0,0],"id":18,"left_children":[1,3,5,7,9,11,13,15,17,19,-1,21,23,25,27,-1,-1,-1,-1,-1,-1,-1,-1,-1,-1,-1,-1,-1,-1],"loss_changes":[6.201325E4,3.465375E3,5.77041E3,2.6890789E3,8.750742E2,3.5295352E3,2.5585151E3,1.2788823E3,1.1852295E1,4.041211E2,0E0,2.0247812E3,1.3901562E3,2.219742E3,6.5676514E2,0E0,0E0,0E0,0E0,0E0,0E0,0E0,0E0,0E0,0E0,0E0,0E0,0E0,0E0],"parents":[2147483647,0,0,1,1,2,2,3,3,4,4,5,5,6,6,7,7,8,8,9,9,11,11,12,12,13,13,14,14],"right_children":[2,4,6,8,10,12,14,16,18,20,-1,22,24,26,28,-1,-1,-1,-1,-1,-1,-1,-1,-1,-1,-1,-1,-1,-1],"split_conditions":[-1.3940638E0,5.364017E-1,1.8630875E0,-5.875721E-1,5.2968055E-1,-1.2781354E0,4.900455E-1,-2.4499753E-1,-1.8631431E0,-9.757262E-1,-7.490239E-2,-7.504703E-2,8.6197406E-1,-3.5015085E-1,3.255987E-1,6.272772E-2,-2.0705516E-2,-7.927436E-2,-6.633889E-2,-7.9695426E-2,6.1039623E-2,6.504301E-2,-7.002846E-2,-5.710875E-2,-2.3034642E-2,5.855626E-2,-6.0004383E-2,6.348606E-2,-7.546087E-2],"split_indices":[14,4,4,3,10,20,11,26,14,11,0,12,7,29,27,0,0,0,0,0,0,0,0,0,0,0,0,0,0],"split_type":[0,0,0,0,0,0,0,0,0,0,0,0,0,0,0,0,0,0,0,0,0,0,0,0,0,0,0,0,0],"sum_hessian":[6.5706445E4,3.0326336E4,3.5380113E4,2.883868E3,2.7442467E4,3.1594057E4,3.786055E3,2.029284E3,8.5458386E2,2.7323912E4,1.1855472E2,1.3933892E3,3.0200668E4,1.9035925E3,1.8824624E3,1.3280642E3,7.0121985E2,3.537955E2,5.0078833E2,5.0292297E1,2.7273621E4,1.01222797E3,3.8116125E2,2.682935E4,3.3713184E3,5.5754565E2,1.3460469E3,1.7940021E3,8.8460335E1],"tree_param":{"num_deleted":"0","num_feature":"30","num_nodes":"29","size_leaf_vector":"1"}},{"base_weights":[3.505147E-4,1.129558E0,-8.381242E-1,1.1609823E0,-1.5594573E0,-1.0997919E0,-3.3901784E-1,1.236586E0,6.910368E-1,-6.5251485E-2,-1.8221656E0,-1.1334027E0,6.9499093E-1,7.9509896E-1,-6.876966E-1,6.1892737E-2,-6.285726E-2,4.173073E-2,-8.959269E-2,-1.0002501E-1,-6.4730674E-2,-2.2370854E-2,-6.077815E-2,7.55998E-2,-7.272673E-2,5.410107E-2,-7.1034774E-2,7.157813E-2,-4.1295264E-2],"categories":[],"categories_nodes":[],"categories_segments":[],"categories_sizes":[],"default_left":[0,0,0,0,0,0,0,0,0,0,0,0,0,0,0,0,0,0,0,0,0,0,0,0,0,0,0,0,0],"id":19,"left_children":[1,3,5,7,9,11,13,15,17,-1,19,21,23,25,27,-1,-1,-1,-1,-1,-1,-1,-1,-1,-1,-1,-1,-1,-1],"loss_changes":[5.8583508E4,2.2297578E3,4.6370156E3,9.25125E2,1.8007446E1,1.4060332E3,4.830683E3,7.258203E1,1.2898555E3,0E0,1.1289642E1,1.2882559E3,7.55321E2,1.8278895E3,2.737691E3,0E0,0E0,0E0,0E0,0E0,0E0,0E0,0E0,0E0,0E0,0E0,0E0,0E0,0E0],"parents":[2147483647,0,0,1,1,2,2,3,3,4,4,5,5,6,6,7,7,8,8,10,10,11,11,12,12,13,13,14,14],"right_children":[2,4,6,8,10,12,14,16,18,-1,20,22,24,26,28,-1,-1,-1,-1,-1,-1,-1,-1,-1,-1,-1,-1,-1,-1],"split_conditions":[-1.8631431E0,-1.1396102E-1,5.2358633E-1,-1.4172139E0,-3.4328553E-1,2.44138E0,-8.41771E-1,4.1697216E-1,9.876643E-1,-6.5251485E-2,5.0263846E-1,-1.3448716E0,-1.0208602E0,5.331426E-1,-3.9934812E0,6.1892737E-2,-6.285726E-2,4.173073E-2,-8.959269E-2,-1.0002501E-1,-6.4730674E-2,-2.2370854E-2,-6.077815E-2,7.55998E-2,-7.272673E-2,5.410107E-2,-7.1034774E-2,7.157813E-2,-4.1295264E-2],"split_indices":[14,3,4,12,4,7,14,10,26,0,10,13,16,9,7,0,0,0,0,0,0,0,0,0,0,0,0,0,0],"split_type":[0,0,0,0,0,0,0,0,0,0,0,0,0,0,0,0,0,0,0,0,0,0,0,0,0,0,0,0,0],"sum_hessian":[6.1872496E4,2.6365148E4,3.5507348E4,2.6061162E4,3.0398648E2,2.3293834E4,1.2213513E4,2.2448127E4,3.6130347E3,1.5745862E2,1.4652786E2,2.286599E4,4.278426E2,2.8717014E3,9.341812E3,2.2437215E4,1.0912091E1,3.416153E3,1.9688162E2,1.0742252E2,3.910534E1,2.446417E3,2.0419574E4,3.102264E2,1.1761619E2,2.54293E3,3.2877145E2,5.713596E2,8.770452E3],"tree_param":{"num_deleted":"0","num_feature":"30","num_nodes":"29","size_leaf_vector":"1"}},{"base_weights":[2.158441E-2,1.1942213E0,-6.5174735E-1,-6.486642E-2,1.2188312E0,-8.495093E-1,4.7498363E-1,1.2233821E0,-7.115691E-2,5.899723E-1,-9.2468786E-1,8.708923E-1,-6.031803E-1,6.132148E-2,-7.768566E-2,5.890242E-2,-6.819588E-2,-5.7815082E-2,-3.0693768E-2,5.6991216E-2,-3.4431838E-3,-6.0080167E-2,7.5793356E-2],"categories":[],"categories_nodes":[],"categories_segments":[],"categories_sizes":[],"default_left":[0,0,0,0,0,0,0,0,0,0,0,0,0,0,0,0,0,0,0,0,0,0,0],"id":20,"left_children":[1,3,5,-1,7,9,11,13,-1,15,17,19,21,-1,-1,-1,-1,-1,-1,-1,-1,-1,-1],"loss_changes":[4.813938E4,1.3652012E3,8.630389E3,0E0,2.6652148E2,3.5660664E3,2.4692246E3,1.8796094E2,0E0,1.8813445E3,2.2534355E3,1.0692668E3,1.972332E3,0E0,0E0,0E0,0E0,0E0,0E0,0E0,0E0,0E0,0E0],"parents":[2147483647,0,0,1,1,2,2,4,4,5,5,6,6,7,7,9,9,10,10,11,11,12,12],"right_children":[2,4,6,-1,8,10,12,14,-1,16,18,20,22,-1,-1,-1,-1,-1,-1,-1,-1,-1,-1],"split_conditions":[-1.8559191E0,-3.4328553E-1,1.7285569E0,-6.486642E-2,1.0133413E0,-1.2781354E0,2.6214612E-1,3.4061654E0,-7.115691E-2,-7.504703E-2,2.2055954E-1,1.0134332E0,9.250214E-1,6.132148E-2,-7.768566E-2,5.890242E-2,-6.819588E-2,-5.7815082E-2,-3.0693768E-2,5.6991216E-2,-3.4431838E-3,-6.0080167E-2,7.5793356E-2],"split_indices":[10,4,4,0,12,20,3,7,0,12,4,10,12,0,0,0,0,0,0,0,0,0,0],"split_type":[0,0,0,0,0,0,0,0,0,0,0,0,0,0,0,0,0,0,0,0,0,0,0],"sum_hessian":[6.096684E4,2.223786E4,3.872898E4,2.1699702E2,2.2020861E4,3.294651E4,5.7824697E3,2.1983531E4,3.733117E1,1.6349261E3,3.1311586E4,4.229546E3,1.552924E3,2.195999E4,2.3539824E1,1.2569962E3,3.7792993E2,1.7940113E4,1.3371472E4,3.28831E3,9.412358E2,1.2112871E3,3.4163687E2],"tree_param":{"num_deleted":"0","num_feature":"30","num_nodes":"23","size_leaf_vector":"1"}},{"base_weights":[-8.411348E-3,1.1707683E0,-7.2244567E-1,-6.3793235E-2,1.2030317E0,-9.5369005E-1,2.2363625E-1,-7.417097E-2,1.211086E0,-1.024569E0,2.0358813E-1,5.7334685E-1,-8.3246917E-1,6.0700685E-2,-7.445029E-2,-5.9789855E-2,-3.800335E-2,8.652063E-2,-5.4180246E-2,-8.071258E-3,5.2438106E-2,-6.934852E-2,4.5154855E-2],"categories":[],"categories_nodes":[],"categories_segments":[],"categories_sizes":[],"default_left":[0,0,0,0,0,0,0,0,0,0,0,0,0,0,0,0,0,0,0,0,0,0,0],"id":21,"left_children":[1,3,5,-1,7,9,11,-1,13,15,17,19,21,-1,-1,-1,-1,-1,-1,-1,-1,-1,-1],"loss_changes":[4.9255375E4,1.7431504E3,7.971615E3,0E0,4.7299805E2,2.4019375E3,2.6439473E3,0E0,1.7344336E2,1.2486621E3,3.3244873E3,1.8786666E3,1.7151383E3,0E0,0E0,0E0,0E0,0E0,0E0,0E0,0E0,0E0,0E0],"parents":[2147483647,0,0,1,1,2,2,4,4,5,5,6,6,8,8,9,9,10,10,11,11,12,12],"right_children":[2,4,6,-1,8,10,12,-1,14,16,18,20,22,-1,-1,-1,-1,-1,-1,-1,-1,-1,-1],"split_conditions":[-1.7335463E0,-3.4328553E-1,1.144587E0,-6.3793235E-2,-5.2000767E-1,9.226787E-1,-1.9384112E-2,-7.417097E-2,6.191318E0,2.2055954E-1,-1.3448716E0,1.3587247E-1,1.3159128E0,6.0700685E-2,-7.445029E-2,-5.9789855E-2,-3.800335E-2,8.652063E-2,-5.4180246E-2,-8.071258E-3,5.2438106E-2,-6.934852E-2,4.5154855E-2],"split_indices":[10,4,4,0,11,21,12,0,29,4,13,11,18,0,0,0,0,0,0,0,0,0,0],"split_type":[0,0,0,0,0,0,0,0,0,0,0,0,0,0,0,0,0,0,0,0,0,0,0],"sum_hessian":[5.849782E4,2.2062479E4,3.643534E4,2.8664603E2,2.1775834E4,2.927889E4,7.156449E3,6.454477E1,2.171129E4,2.7589268E4,1.6896237E3,5.376555E3,1.779894E3,2.1688322E4,2.2965885E1,1.6745424E4,1.0843844E4,7.7271326E2,9.169104E2,2.112409E3,3.2641462E3,1.3490748E3,4.3081912E2],"tree_param":{"num_deleted":"0","num_feature":"30","num_nodes":"23","size_leaf_vector":"1"}},{"base_weights":[3.157719E-2,1.0261154E0,-7.530885E-1,1.1397493E0,4.921359E-2,7.4623454E-1,-8.4831244E-1,-6.3589476E-2,1.1652116E0,-6.0420454E-1,1.207639E0,1.2584944E0,-6.669583E-2,-1.0769783E0,-3.4618157E-1,1.382884E-1,5.7773955E-2,-8.035761E-2,1.3363153E-2,-8.137666E-2,6.57965E-2,-7.053515E-2,7.1733564E-2,-5.51435E-2,4.71034E-2,2.290388E-2,-4.049832E-2],"categories":[],"categories_nodes":[],"categories_segments":[],"categories_sizes":[],"default_left":[0,0,0,0,0,0,0,0,0,0,0,0,0,0,0,0,0,0,0,0,0,0,0,0,0,0,0],"id":22,"left_children":[1,3,5,7,9,11,13,-1,15,17,19,21,-1,23,25,-1,-1,-1,-1,-1,-1,-1,-1,-1,-1,-1,-1],"loss_changes":[4.4773168E4,2.8087988E3,4.579408E3,1.3932656E3,1.9972307E3,2.0430516E3,3.4621348E3,0E0,3.4620703E2,1.4749773E3,2.942909E2,7.2513184E2,0E0,1.0841875E3,3.5204912E3,0E0,0E0,0E0,0E0,0E0,0E0,0E0,0E0,0E0,0E0,0E0,0E0],"parents":[2147483647,0,0,1,1,2,2,3,3,4,4,5,5,6,6,8,8,9,9,10,10,11,11,13,13,14,14],"right_children":[2,4,6,8,10,12,14,-1,16,18,20,22,-1,24,26,-1,-1,-1,-1,-1,-1,-1,-1,-1,-1,-1,-1],"split_conditions":[-1.3940638E0,-2.763427E-1,-1.2781354E0,-5.375104E-1,1.437531E0,-7.504703E-2,6.3038516E-1,-6.3589476E-2,-5.2922624E-1,-1.8642923E-1,6.5812254E-1,-1.5250717E-1,-6.669583E-2,2.4931118E0,-3.2264403E-1,1.382884E-1,5.7773955E-2,-8.035761E-2,1.3363153E-2,-8.137666E-2,6.57965E-2,-7.053515E-2,7.1733564E-2,-5.51435E-2,4.71034E-2,2.290388E-2,-4.049832E-2],"split_indices":[14,12,20,4,4,12,4,0,4,29,18,4,0,26,29,0,0,0,0,0,0,0,0,0,0,0,0],"split_type":[0,0,0,0,0,0,0,0,0,0,0,0,0,0,0,0,0,0,0,0,0,0,0,0,0,0,0],"sum_hessian":[5.7371555E4,2.5301904E4,3.2069648E4,2.2665295E4,2.6366084E3,1.9147424E3,3.0154906E4,2.3630038E2,2.2428996E4,1.6860552E3,9.505531E2,1.5367067E3,3.7803577E2,2.0718666E4,9.43624E3,1.3384921E2,2.2295146E4,7.835013E2,9.025539E2,3.4455036E1,9.160981E2,9.4714294E1,1.4419924E3,2.045679E4,2.618779E2,3.4512925E3,5.9849478E3],"tree_param":{"num_deleted":"0","num_feature":"30","num_nodes":"27","size_leaf_vector":"1"}},{"base_weights":[3.6408674E-2,1.0081475E0,-7.3947805E-1,-5.786866E-1,1.1025339E0,-1.0093976E0,-1.9102557E-1,-1.3844435E0,1.0141083E0,1.1643274E0,4.3205342E-1,-1.0450019E0,7.482495E-1,2.4475064E0,-3.133041E-1,-6.6068165E-2,-8.3791554E-2,8.561664E-2,-7.207052E-2,5.8641743E-2,-7.789369E-2,-8.500891E-2,3.3768337E-2,-5.3529896E-2,4.4545952E-2,-6.69226E-2,7.668563E-2,1.6131364E-1,-6.369937E-2,1.782122E-2,-4.9424212E-2],"categories":[],"categories_nodes":[],"categories_segments":[],"categories_sizes":[],"default_left":[0,0,0,0,0,0,0,0,0,0,0,0,0,0,0,0,0,0,0,0,0,0,0,0,0,0,0,0,0,0,0],"id":23,"left_children":[1,3,5,7,9,11,13,15,17,19,21,23,25,27,29,-1,-1,-1,-1,-1,-1,-1,-1,-1,-1,-1,-1,-1,-1,-1,-1],"loss_changes":[4.226364E4,3.7280684E3,4.6139824E3,1.7953982E3,9.727129E2,1.3079668E3,3.317946E3,1.4855591E1,8.0855896E2,4.9991992E2,1.0303466E3,1.0154824E3,6.827606E2,1.3241975E3,4.4440005E3,0E0,0E0,0E0,0E0,0E0,0E0,0E0,0E0,0E0,0E0,0E0,0E0,0E0,0E0,0E0,0E0],"parents":[2147483647,0,0,1,1,2,2,3,3,4,4,5,5,6,6,7,7,8,8,9,9,10,10,11,11,12,12,13,13,14,14],"right_children":[2,4,6,8,10,12,14,16,18,20,22,24,26,28,30,-1,-1,-1,-1,-1,-1,-1,-1,-1,-1,-1,-1,-1,-1,-1,-1],"split_conditions":[-1.3940638E0,2.6339847E-1,6.3038516E-1,1.3006039E0,-2.763427E-1,2.44138E0,6.441573E-1,1.6513621E0,-2.1951929E-1,5.2968055E-1,-4.9764544E-2,2.4931118E0,8.37901E-1,-1.8557718E-3,-2.1265022E-1,-6.6068165E-2,-8.3791554E-2,8.561664E-2,-7.207052E-2,5.8641743E-2,-7.789369E-2,-8.500891E-2,3.3768337E-2,-5.3529896E-2,4.4545952E-2,-6.69226E-2,7.668563E-2,1.6131364E-1,-6.369937E-2,1.782122E-2,-4.9424212E-2],"split_indices":[14,4,4,11,12,7,4,17,7,10,28,26,19,14,12,0,0,0,0,0,0,0,0,0,0,0,0,0,0,0,0],"split_type":[0,0,0,0,0,0,0,0,0,0,0,0,0,0,0,0,0,0,0,0,0,0,0,0,0,0,0,0,0,0,0],"sum_hessian":[5.6053613E4,2.4885777E4,3.1167836E4,1.396839E3,2.348894E4,2.088734E4,1.0280496E4,9.276791E2,4.6915988E2,2.1506135E4,1.9828041E3,2.0473027E4,4.1431213E2,4.544893E2,9.826007E3,7.671414E2,1.6053764E2,3.6552563E2,1.0363424E2,2.14397E4,6.6435455E1,2.0247389E2,1.7803302E3,2.0206314E4,2.6671353E2,1.13111176E2,3.0120096E2,3.7595032E2,7.8538956E1,4.933156E3,4.8928516E3],"tree_param":{"num_deleted":"0","num_feature":"30","num_nodes":"31","size_leaf_vector":"1"}},{"base_weights":[2.8228562E-2,9.926624E-1,-7.4113107E-1,-6.135706E-1,1.0719234E0,-1.0309837E0,-2.4315563E-1,-1.0314833E0,1.5950693E0,1.1480727E0,2.3257904E-1,-1.1164856E0,-1.4636518E-1,7.9013175E-1,-5.641881E-1,-6.69147E-2,4.9339052E-2,1.2143701E-1,-6.743278E-2,5.9301782E-2,4.0124115E-2,-7.711605E-2,3.1915437E-2,-5.6957763E-2,3.4870327E-2,8.161002E-2,-3.1879235E-2,5.439201E-2,-7.108156E-2,5.786842E-3,-4.8848156E-2],"categories":[],"categories_nodes":[],"categories_segments":[],"categories_sizes":[],"default_left":[0,0,0,0,0,0,0,0,0,0,0,0,0,0,0,0,0,0,0,0,0,0,0,0,0,0,0,0,0,0,0],"id":24,"left_children":[1,3,5,7,9,11,13,15,17,19,21,23,25,27,29,-1,-1,-1,-1,-1,-1,-1,-1,-1,-1,-1,-1,-1,-1,-1,-1],"loss_changes":[4.0410285E4,3.0773945E3,4.372457E3,1.0512068E3,1.4717578E3,1.448166E3,3.698152E3,5.937826E2,4.4824527E2,2.7606836E2,1.3814188E3,7.187832E2,1.4764979E3,1.7417026E3,2.3871892E3,0E0,0E0,0E0,0E0,0E0,0E0,0E0,0E0,0E0,0E0,0E0,0E0,0E0,0E0,0E0,0E0],"parents":[2147483647,0,0,1,1,2,2,3,3,4,4,5,5,6,6,7,7,8,8,9,9,10,10,11,11,12,12,13,13,14,14],"right_children":[2,4,6,8,10,12,14,16,18,20,22,24,26,28,30,-1,-1,-1,-1,-1,-1,-1,-1,-1,-1,-1,-1,-1,-1,-1,-1],"split_conditions":[-1.3940638E0,5.6407318E-2,5.2358633E-1,1.5157312E0,-2.763427E-1,8.6526734E-1,-3.4707233E-1,2.4394753E0,-8.6412376E-1,3.260673E-1,7.893386E-1,2.4649773E0,-1.3822917E0,1.8926969E-1,-4.4839177E-1,-6.69147E-2,4.9339052E-2,1.2143701E-1,-6.743278E-2,5.9301782E-2,4.0124115E-2,-7.711605E-2,3.1915437E-2,-5.6957763E-2,3.4870327E-2,8.161002E-2,-3.1879235E-2,5.439201E-2,-7.108156E-2,5.786842E-3,-4.8848156E-2],"split_indices":[14,4,4,0,12,29,29,25,7,16,18,22,19,8,12,0,0,0,0,0,0,0,0,0,0,0,0,0,0,0,0],"split_type":[0,0,0,0,0,0,0,0,0,0,0,0,0,0,0,0,0,0,0,0,0,0,0,0,0,0,0,0,0,0,0],"sum_hessian":[5.445957E4,2.4165953E4,3.0293617E4,1.1360967E3,2.3029855E4,1.9147508E4,1.114611E4,9.557796E2,1.80317E2,2.1113932E4,1.9159249E3,1.7459695E4,1.6878115E3,2.6417646E3,8.504346E3,8.2994995E2,1.2582968E2,1.4065738E2,3.965962E1,1.9021953E4,2.0919792E3,3.5595728E2,1.5599677E3,1.7244549E4,2.1514685E2,3.6476804E2,1.3230435E3,2.3288096E3,3.1295508E2,3.2128472E3,5.291498E3],"tree_param":{"num_deleted":"0","num_feature":"30","num_nodes":"31","size_leaf_vector":"1"}},{"base_weights":[8.822305E-3,1.0347743E0,-6.889248E-1,1.1577383E0,2.3664822E-1,7.7053124E-1,-7.952363E-1,-8.0847405E-2,1.1599779E0,-2.082881E0,4.4015914E-1,1.3228732E0,-1.22241035E-1,-8.815848E-1,4.837655E-2,5.8062006E-2,-8.812412E-2,-8.559975E-2,-1.18149176E-1,-3.813539E-2,3.3668626E-2,7.189877E-2,-6.63208E-2,4.6056822E-2,-6.815725E-2,-2.3767087E-3,-4.913504E-2,-4.118372E-2,4.8982885E-2],"categories":[],"categories_nodes":[],"categories_segments":[],"categories_sizes":[],"default_left":[0,0,0,0,0,0,0,0,0,0,0,0,0,0,0,0,0,0,0,0,0,0,0,0,0,0,0,0,0],"id":25,"left_children":[1,3,5,7,9,11,13,-1,15,17,19,21,23,25,27,-1,-1,-1,-1,-1,-1,-1,-1,-1,-1,-1,-1,-1,-1],"loss_changes":[3.7231582E4,2.0659238E3,4.8037314E3,1.1524414E2,1.3282518E3,1.0368748E3,2.1019883E3,0E0,6.92832E1,1.9534851E1,7.2591473E2,3.979934E2,1.0428287E3,2.2075215E3,2.1774612E3,0E0,0E0,0E0,0E0,0E0,0E0,0E0,0E0,0E0,0E0,0E0,0E0,0E0,0E0],"parents":[2147483647,0,0,1,1,2,2,3,3,4,4,5,5,6,6,8,8,9,9,10,10,11,11,12,12,13,13,14,14],"right_children":[2,4,6,8,10,12,14,-1,16,18,20,22,24,26,28,-1,-1,-1,-1,-1,-1,-1,-1,-1,-1,-1,-1,-1,-1],"split_conditions":[-1.8631431E0,-1.6252177E0,-1.2781354E0,-4.7467467E-1,-1.0147318E0,-7.2209626E-1,1.0334257E0,-8.0847405E-2,-1.1396102E-1,2.5615036E0,-1.0035807E-2,9.2554605E-1,-8.615503E-1,-1.0368849E0,1.7640856E-1,5.8062006E-2,-8.812412E-2,-8.559975E-2,-1.18149176E-1,-3.813539E-2,3.3668626E-2,7.189877E-2,-6.63208E-2,4.6056822E-2,-6.815725E-2,-2.3767087E-3,-4.913504E-2,-4.118372E-2,4.8982885E-2],"split_indices":[14,10,20,11,6,16,7,0,3,17,11,18,14,14,15,0,0,0,0,0,0,0,0,0,0,0,0,0,0],"split_type":[0,0,0,0,0,0,0,0,0,0,0,0,0,0,0,0,0,0,0,0,0,0,0,0,0,0,0,0,0],"sum_hessian":[5.200795E4,2.1052432E4,3.0955516E4,1.8241578E4,2.8108552E3,2.1013735E3,2.8854143E4,1.4130946E1,1.8227447E4,2.2598152E2,2.5848738E3,1.297903E3,8.034707E2,2.6174943E4,2.6791978E3,1.822018E4,7.2659388E0,1.002938E2,1.2568772E2,4.1940378E2,2.16547E3,1.2442998E3,5.3603188E1,4.366142E2,3.668565E2,2.830355E3,2.334459E4,1.3836575E3,1.2955403E3],"tree_param":{"num_deleted":"0","num_feature":"30","num_nodes":"29","size_leaf_vector":"1"}},{"base_weights":[3.8727384E-2,8.432677E-1,-7.892487E-1,1.057144E0,-1.5203278E-1,-9.171027E-1,2.6647255E-1,-6.1367203E-2,1.1098952E0,-1.3390912E0,2.4158114E-1,6.0488844E-1,-9.94408E-1,7.3805046E-1,-1.4493753E0,5.6834646E-2,1.7103955E-2,-6.414628E-2,-9.473228E-2,1.0522075E-3,1.4097115E-1,6.615887E-2,-6.532211E-2,-5.5898715E-2,-5.6646834E-3,5.117126E-2,-7.298533E-2,-8.252668E-2,-6.5799914E-2],"categories":[],"categories_nodes":[],"categories_segments":[],"categories_sizes":[],"default_left":[0,0,0,0,0,0,0,0,0,0,0,0,0,0,0,0,0,0,0,0,0,0,0,0,0,0,0,0,0],"id":26,"left_children":[1,3,5,7,9,11,13,-1,15,17,19,21,23,25,27,-1,-1,-1,-1,-1,-1,-1,-1,-1,-1,-1,-1,-1,-1],"loss_changes":[3.420743E4,5.5442715E3,3.4161738E3,2.5848262E3,2.1531687E3,2.65658E3,2.2137534E3,0E0,4.3076758E2,3.3375E1,1.9675758E3,1.5006049E3,2.3388516E3,1.3472365E3,1.3654053E1,0E0,0E0,0E0,0E0,0E0,0E0,0E0,0E0,0E0,0E0,0E0,0E0,0E0,0E0],"parents":[2147483647,0,0,1,1,2,2,3,3,4,4,5,5,6,6,8,8,9,9,10,10,11,11,12,12,13,13,14,14],"right_children":[2,4,6,8,10,12,14,-1,16,18,20,22,24,26,28,-1,-1,-1,-1,-1,-1,-1,-1,-1,-1,-1,-1,-1,-1],"split_conditions":[-8.41771E-1,-3.061372E-1,1.9357407E0,-5.375104E-1,-3.769499E-2,-1.2781354E0,4.8254812E-1,-6.1367203E-2,2.3705995E-1,2.3294735E0,-8.615503E-1,-7.2209626E-1,8.6197406E-1,3.255987E-1,-5.148847E-1,5.6834646E-2,1.7103955E-2,-6.414628E-2,-9.473228E-2,1.0522075E-3,1.4097115E-1,6.615887E-2,-6.532211E-2,-5.5898715E-2,-5.6646834E-3,5.117126E-2,-7.298533E-2,-8.252668E-2,-6.5799914E-2],"split_indices":[14,12,4,4,28,20,16,0,10,17,14,16,7,27,12,0,0,0,0,0,0,0,0,0,0,0,0,0,0],"split_type":[0,0,0,0,0,0,0,0,0,0,0,0,0,0,0,0,0,0,0,0,0,0,0,0,0,0,0,0,0],"sum_hessian":[5.1349707E4,2.6043424E4,2.5306283E4,2.1436871E4,4.606552E3,2.2572727E4,2.7335579E3,4.833247E2,2.0953547E4,1.1465105E3,3.4600415E3,1.090769E3,2.1481957E4,2.1446885E3,5.888692E2,2.0246441E4,7.0710455E2,1.0442482E3,1.02262405E2,3.1882883E3,2.7175314E2,7.9304565E2,2.9772333E2,1.8839643E4,2.642315E3,1.8986824E3,2.4600616E2,2.3024329E2,3.5862592E2],"tree_param":{"num_deleted":"0","num_feature":"30","num_nodes":"29","size_leaf_vector":"1"}},{"base_weights":[1.9509507E-2,9.565679E-1,-7.252193E-1,1.13964E0,2.538905E-1,6.46078E-1,-8.1809E-1,-5.9120763E-2,1.1430174E0,-1.2884697E0,4.9733624E-1,1.0829527E0,-6.339308E-2,-9.35607E-1,1.912703E-1,5.72008E-2,-8.37624E-2,-6.2237304E-2,-7.33877E-2,-7.1050406E-2,3.220566E-2,-6.638371E-2,6.1880507E-2,-5.1872272E-2,-1.1337581E-2,5.9085973E-2,-1.258715E-2],"categories":[],"categories_nodes":[],"categories_segments":[],"categories_sizes":[],"default_left":[0,0,0,0,0,0,0,0,0,0,0,0,0,0,0,0,0,0,0,0,0,0,0,0,0,0,0],"id":27,"left_children":[1,3,5,7,9,11,13,-1,15,17,19,21,-1,23,25,-1,-1,-1,-1,-1,-1,-1,-1,-1,-1,-1,-1],"loss_changes":[3.4637293E4,2.8270898E3,3.522496E3,1.380918E2,1.7068341E3,1.4685627E3,3.0725215E3,0E0,5.092383E1,3.0310059E0,1.106154E3,5.3445715E2,0E0,1.6745742E3,1.1858738E3,0E0,0E0,0E0,0E0,0E0,0E0,0E0,0E0,0E0,0E0,0E0,0E0],"parents":[2147483647,0,0,1,1,2,2,3,3,4,4,5,5,6,6,8,8,9,9,10,10,11,11,13,13,14,14],"right_children":[2,4,6,8,10,12,14,-1,16,18,20,22,-1,24,26,-1,-1,-1,-1,-1,-1,-1,-1,-1,-1,-1,-1],"split_conditions":[-1.3940638E0,-1.4172139E0,-1.2781354E0,-3.4328553E-1,8.289957E-1,-7.504703E-2,1.9357407E0,-5.9120763E-2,1.761454E0,5.122723E-1,3.9231684E-2,-1.5250717E-1,-6.339308E-2,8.6197406E-1,-5.136665E-1,5.72008E-2,-8.37624E-2,-6.2237304E-2,-7.33877E-2,-7.1050406E-2,3.220566E-2,-6.638371E-2,6.1880507E-2,-5.1872272E-2,-1.1337581E-2,5.9085973E-2,-1.258715E-2],"split_indices":[14,12,20,4,17,12,4,0,7,4,18,4,0,7,21,0,0,0,0,0,0,0,0,0,0,0,0],"split_type":[0,0,0,0,0,0,0,0,0,0,0,0,0,0,0,0,0,0,0,0,0,0,0,0,0,0,0],"sum_hessian":[4.963199E4,2.1977904E4,2.7654082E4,1.7434885E4,4.54302E3,1.753693E3,2.5900389E4,2.4814917E1,1.741007E4,6.187312E2,3.9242888E3,1.4281405E3,3.255524E2,2.319942E4,2.7009702E3,1.7404496E4,5.573513E0,5.038066E2,1.1492459E2,2.782989E2,3.64599E3,8.564333E1,1.3424972E3,2.028473E4,2.9146892E3,8.342228E2,1.8667474E3],"tree_param":{"num_deleted":"0","num_feature":"30","num_nodes":"27","size_leaf_vector":"1"}},{"base_weights":[6.3944217E-3,9.934748E-1,-6.1379725E-1,1.1243175E0,2.60512E-1,-9.680967E-1,-7.505472E-2,-6.370147E-2,1.1286353E0,8.1737113E-1,-6.623456E-1,-2.3175722E-1,-1.1039519E0,6.089323E-1,-5.213551E-1,5.653863E-2,-9.123259E-2,-6.066958E-2,4.7229614E-2,-9.2701174E-2,3.5581555E-2,-3.7500042E-2,9.141492E-2,-5.7075657E-2,5.9935965E-2,-1.0826473E-2,4.856559E-2,6.2582167E-3,-5.1840067E-2],"categories":[],"categories_nodes":[],"categories_segments":[],"categories_sizes":[],"default_left":[0,0,0,0,0,0,0,0,0,0,0,0,0,0,0,0,0,0,0,0,0,0,0,0,0,0,0,0,0],"id":28,"left_children":[1,3,5,7,9,11,13,-1,15,17,19,21,23,25,27,-1,-1,-1,-1,-1,-1,-1,-1,-1,-1,-1,-1,-1,-1],"loss_changes":[2.871739E4,1.7356465E3,5.4988994E3,1.6048438E2,1.410229E3,1.7383115E3,3.4896685E3,0E0,9.883789E1,4.4325696E2,1.6924622E3,2.8928232E3,1.270377E3,1.3504565E3,2.3054292E3,0E0,0E0,0E0,0E0,0E0,0E0,0E0,0E0,0E0,0E0,0E0,0E0,0E0,0E0],"parents":[2147483647,0,0,1,1,2,2,3,3,4,4,5,5,6,6,8,8,9,9,10,10,11,11,12,12,13,13,14,14],"right_children":[2,4,6,8,10,12,14,-1,16,18,20,22,24,26,28,-1,-1,-1,-1,-1,-1,-1,-1,-1,-1,-1,-1,-1,-1],"split_conditions":[-1.8631431E0,-1.4709982E0,5.2358633E-1,-3.4328553E-1,3.4488392E-1,-9.11901E-1,-3.2264403E-1,-6.370147E-2,-1.1396102E-1,-5.375104E-1,1.8630875E0,-9.5748556E-1,2.4931118E0,3.0065132E-2,-4.892316E-1,5.653863E-2,-9.123259E-2,-6.066958E-2,4.7229614E-2,-9.2701174E-2,3.5581555E-2,-3.7500042E-2,9.141492E-2,-5.7075657E-2,5.9935965E-2,-1.0826473E-2,4.856559E-2,6.2582167E-3,-5.1840067E-2],"split_indices":[14,10,4,4,5,10,29,0,3,4,4,10,26,28,16,0,0,0,0,0,0,0,0,0,0,0,0,0,0],"split_type":[0,0,0,0,0,0,0,0,0,0,0,0,0,0,0,0,0,0,0,0,0,0,0,0,0,0,0,0,0],"sum_hessian":[4.690812E4,1.8100018E4,2.8808105E4,1.535791E4,2.742108E3,1.737849E4,1.1429614E4,2.707052E1,1.533084E4,1.7102467E3,1.0318613E3,2.7073394E3,1.4671151E4,4.5129043E3,6.9167104E3,1.5320369E4,1.0470001E1,1.0032207E2,1.6099247E3,5.524022E2,4.7945908E2,2.1636665E3,5.436728E2,1.4436173E4,2.3497815E2,1.3768923E3,3.1360117E3,3.0685781E3,3.848132E3],"tree_param":{"num_deleted":"0","num_feature":"30","num_nodes":"29","size_leaf_vector":"1"}},{"base_weights":[3.666732E-2,9.8951346E-1,-5.52747E-1,1.1307528E0,3.2814705E-1,-9.2866397E-1,-1.2095448E-2,1.1323073E0,-1.5639056E0,7.7939445E-1,-5.3505224E-1,-2.0482123E-1,-1.0606319E0,5.986228E-1,-4.2356232E-1,-7.7958204E-2,5.6639273E-2,-1.13731205E-1,-5.3119123E-2,4.4848945E-2,-7.820196E-2,2.664615E-2,-8.7855704E-2,-5.805043E-2,5.411176E-2,-5.489215E-2,4.6133973E-2,4.0640682E-2,-4.5178987E-2,3.3366445E-2,-3.9382365E-2],"categories":[],"categories_nodes":[],"categories_segments":[],"categories_sizes":[],"default_left":[0,0,0,0,0,0,0,0,0,0,0,0,0,0,0,0,0,0,0,0,0,0,0,0,0,0,0,0,0,0,0],"id":29,"left_children":[1,3,5,7,9,11,13,15,17,19,21,23,25,27,29,-1,-1,-1,-1,-1,-1,-1,-1,-1,-1,-1,-1,-1,-1,-1,-1],"loss_changes":[2.6075008E4,1.657082E3,5.8298203E3,6.301172E1,1.2172158E3,1.616043E3,2.956814E3,2.0574219E1,7.3768425E-1,5.667947E2,1.4013589E3,3.2137056E3,1.0571514E3,1.5247303E3,2.7927012E3,0E0,0E0,0E0,0E0,0E0,0E0,0E0,0E0,0E0,0E0,0E0,0E0,0E0,0E0,0E0,0E0],"parents":[2147483647,0,0,1,1,2,2,3,3,4,4,5,5,6,6,7,7,8,8,9,9,10,10,11,11,12,12,13,13,14,14],"right_children":[2,4,6,8,10,12,14,16,18,20,22,24,26,28,30,-1,-1,-1,-1,-1,-1,-1,-1,-1,-1,-1,-1,-1,-1,-1,-1],"split_conditions":[-1.8631431E0,-1.9431003E0,5.2358633E-1,1.1511099E0,-4.4196647E-2,-1.0252284E0,-5.5802804E-1,4.508498E-2,1.6124561E0,1.3580345E0,-1.330928E0,5.5684114E-1,2.4931118E0,1.2486998E0,-3.4707233E-1,-7.7958204E-2,5.6639273E-2,-1.13731205E-1,-5.3119123E-2,4.4848945E-2,-7.820196E-2,2.664615E-2,-8.7855704E-2,-5.805043E-2,5.411176E-2,-5.489215E-2,4.6133973E-2,4.0640682E-2,-4.5178987E-2,3.3366445E-2,-3.9382365E-2],"split_indices":[14,12,4,9,15,26,12,11,9,26,10,7,26,13,29,0,0,0,0,0,0,0,0,0,0,0,0,0,0,0,0],"split_type":[0,0,0,0,0,0,0,0,0,0,0,0,0,0,0,0,0,0,0,0,0,0,0,0,0,0,0,0,0,0,0],"sum_hessian":[4.6426133E4,1.7742676E4,2.8683455E4,1.4619806E4,3.12287E3,1.691894E4,1.1764517E4,1.4611956E4,7.8491473E0,2.0508577E3,1.0720125E3,2.609331E3,1.4309608E4,4.735465E3,7.029052E3,2.0165586E0,1.4609939E4,1.7846506E0,6.064497E0,1.953458E3,9.739968E1,5.723727E2,4.996398E2,1.4971544E3,1.1121766E3,1.4046513E4,2.630955E2,4.144922E3,5.9054285E2,1.7587015E3,5.27035E3],"tree_param":{"num_deleted":"0","num_feature":"30","num_nodes":"31","size_leaf_vector":"1"}},{"base_weights":[3.0541886E-2,7.976929E-1,-7.568739E-1,1.1238806E0,1.6032833E-1,-8.954778E-1,2.3016465E-1,1.1264075E0,-6.5729044E-2,-8.80186E-1,4.03584E-1,4.7059697E-1,-9.746934E-1,1.3978297E0,-6.6421866E-1,5.6367088E-2,-1.3515155E-1,-5.9991278E-2,5.1112216E-2,2.8638292E-2,-5.2533902E-2,6.0783245E-2,-6.512894E-2,-2.4668695E-2,-5.5515137E-2,-6.0574085E-2,8.085478E-2,-6.256207E-2,2.7503634E-2],"categories":[],"categories_nodes":[],"categories_segments":[],"categories_sizes":[],"default_left":[0,0,0,0,0,0,0,0,0,0,0,0,0,0,0,0,0,0,0,0,0,0,0,0,0,0,0,0,0],"id":30,"left_children":[1,3,5,7,9,11,13,15,-1,17,19,21,23,25,27,-1,-1,-1,-1,-1,-1,-1,-1,-1,-1,-1,-1,-1,-1],"loss_changes":[2.7412889E4,4.778628E3,3.0639404E3,9.5166016E1,1.9702028E3,2.1254902E3,2.8815342E3,5.738867E1,0E0,8.981577E2,1.5527245E3,1.4244213E3,1.2109688E3,6.866282E2,1.1145406E3,0E0,0E0,0E0,0E0,0E0,0E0,0E0,0E0,0E0,0E0,0E0,0E0,0E0,0E0],"parents":[2147483647,0,0,1,1,2,2,3,3,4,4,5,5,6,6,7,7,9,9,10,10,11,11,12,12,13,13,14,14],"right_children":[2,4,6,8,10,12,14,16,-1,18,20,22,24,26,28,-1,-1,-1,-1,-1,-1,-1,-1,-1,-1,-1,-1,-1,-1],"split_conditions":[-8.41771E-1,-1.9431003E0,8.0742705E-1,5.2968055E-1,-3.239849E-1,-1.2781354E0,-1.1728926E0,2.6358259E0,-6.5729044E-2,1.5157312E0,7.692878E-1,-7.2209626E-1,-7.904762E-1,1.0861687E-1,1.043882E0,5.6367088E-2,-1.3515155E-1,-5.9991278E-2,5.1112216E-2,2.8638292E-2,-5.2533902E-2,6.0783245E-2,-6.512894E-2,-2.4668695E-2,-5.5515137E-2,-6.0574085E-2,8.085478E-2,-6.256207E-2,2.7503634E-2],"split_indices":[14,12,20,10,4,20,13,13,0,0,24,16,19,4,22,0,0,0,0,0,0,0,0,0,0,0,0,0,0],"split_type":[0,0,0,0,0,0,0,0,0,0,0,0,0,0,0,0,0,0,0,0,0,0,0,0,0,0,0,0,0],"sum_hessian":[4.5378555E4,2.2985041E4,2.2393516E4,1.5203497E4,7.7815435E3,1.9636213E4,2.7573025E3,1.5188296E4,1.5200793E1,1.4739927E3,6.307551E3,1.0759802E3,1.8560232E4,1.1956954E3,1.5616069E3,1.5185297E4,2.9990873E0,1.2622784E3,2.1171422E2,5.6507734E3,6.5677765E2,7.578534E2,3.1812683E2,4.0808079E3,1.4479425E4,9.2337265E1,1.1033582E3,1.0526808E3,5.0892618E2],"tree_param":{"num_deleted":"0","num_feature":"30","num_nodes":"29","size_leaf_vector":"1"}},{"base_weights":[4.7580324E-2,8.689624E-1,-7.1322376E-1,1.109672E0,2.895975E-1,5.92449E-1,-7.9231614E-1,-6.977255E-2,1.1137189E0,4.2594543E-1,-1.2802918E0,-1.319018E0,1.0445752E0,-8.712939E-1,5.4768384E-1,5.573089E-2,-8.96594E-2,-6.510407E-2,2.673089E-2,-6.261961E-2,-7.2533235E-2,-6.925129E-2,-6.060151E-2,6.711135E-2,-6.6680156E-2,-4.5575242E-2,4.9431328E-2,-2.2940477E-2,7.61789E-2],"categories":[],"categories_nodes":[],"categories_segments":[],"categories_sizes":[],"default_left":[0,0,0,0,0,0,0,0,0,0,0,0,0,0,0,0,0,0,0,0,0,0,0,0,0,0,0,0,0],"id":31,"left_children":[1,3,5,7,9,11,13,-1,15,17,19,21,23,25,27,-1,-1,-1,-1,-1,-1,-1,-1,-1,-1,-1,-1,-1,-1],"loss_changes":[2.805482E4,3.010255E3,2.4073096E3,1.5616797E2,1.3571536E3,1.1523096E3,2.3261787E3,0E0,4.178711E1,1.0958921E3,5.9173584E-1,1.2347412E-1,7.645624E2,1.5530029E3,1.202701E3,0E0,0E0,0E0,0E0,0E0,0E0,0E0,0E0,0E0,0E0,0E0,0E0,0E0,0E0],"parents":[2147483647,0,0,1,1,2,2,3,3,4,4,5,5,6,6,8,8,9,9,10,10,11,11,12,12,13,13,14,14],"right_children":[2,4,6,8,10,12,14,-1,16,18,20,22,24,26,28,-1,-1,-1,-1,-1,-1,-1,-1,-1,-1,-1,-1,-1,-1],"split_conditions":[-1.0866854E0,-1.7335463E0,-1.2781354E0,-5.2000767E-1,5.2968055E-1,-3.1772792E-1,1.2246553E0,-6.977255E-2,3.4061654E0,-9.757262E-1,1.7191577E0,7.249904E-3,5.440892E-2,2.4931118E0,1.0094818E0,5.573089E-2,-8.96594E-2,-6.510407E-2,2.673089E-2,-6.261961E-2,-7.2533235E-2,-6.925129E-2,-6.060151E-2,6.711135E-2,-6.6680156E-2,-4.5575242E-2,4.9431328E-2,-2.2940477E-2,7.61789E-2],"split_indices":[14,10,20,11,10,28,23,0,7,11,17,8,6,26,11,0,0,0,0,0,0,0,0,0,0,0,0,0,0],"split_type":[0,0,0,0,0,0,0,0,0,0,0,0,0,0,0,0,0,0,0,0,0,0,0,0,0,0,0,0,0],"sum_hessian":[4.4892125E4,2.158659E4,2.3305537E4,1.5249813E4,6.3367764E3,1.3307513E3,2.1974785E4,2.40411E1,1.5225772E4,5.831066E3,5.0571066E2,2.541895E2,1.0765618E3,2.075204E4,1.2227466E3,1.5221682E4,4.0906615E0,3.44358E2,5.486708E3,4.4172623E2,6.3984455E1,1.4981383E2,1.0437567E2,9.571953E2,1.1936654E2,2.0313379E4,4.386596E2,6.0219727E2,6.2054926E2],"tree_param":{"num_deleted":"0","num_feature":"30","num_nodes":"29","size_leaf_vector":"1"}},{"base_weights":[2.506437E-2,7.7651346E-1,-7.354044E-1,9.9815416E-1,-1.2119786E-1,-8.678276E-1,2.2436199E-1,-5.8580276E-2,1.0490451E0,-3.0761966E-1,2.168934E0,7.4454375E-2,-9.790441E-1,-5.8558334E-2,6.8545556E-1,5.3341676E-2,-7.2237045E-2,-3.428464E-2,4.387258E-2,1.4345942E-1,-5.9726715E-2,8.8467725E-2,-3.5308085E-2,-5.4380108E-2,-7.25825E-3,-6.5132074E-2,5.3323705E-2],"categories":[],"categories_nodes":[],"categories_segments":[],"categories_sizes":[],"default_left":[0,0,0,0,0,0,0,0,0,0,0,0,0,0,0,0,0,0,0,0,0,0,0,0,0,0,0],"id":32,"left_children":[1,3,5,7,9,11,13,-1,15,17,19,21,23,-1,25,-1,-1,-1,-1,-1,-1,-1,-1,-1,-1,-1,-1],"loss_changes":[2.4236041E4,4.2445576E3,2.679255E3,1.8903438E3,1.8043718E3,1.941292E3,1.6458619E3,0E0,7.4310547E2,1.7514098E3,7.5275146E2,2.5897478E3,1.4996611E3,0E0,1.4575026E3,0E0,0E0,0E0,0E0,0E0,0E0,0E0,0E0,0E0,0E0,0E0,0E0],"parents":[2147483647,0,0,1,1,2,2,3,3,4,4,5,5,6,6,8,8,9,9,10,10,11,11,12,12,14,14],"right_children":[2,4,6,8,10,12,14,-1,16,18,20,22,24,-1,26,-1,-1,-1,-1,-1,-1,-1,-1,-1,-1,-1,-1],"split_conditions":[-8.41771E-1,-3.061372E-1,8.0742705E-1,-5.375104E-1,-8.615503E-1,-6.506419E-1,1.0861687E-1,-5.8580276E-2,8.131703E-1,1.3390442E0,-7.134721E-1,-4.438695E-1,1.7285569E0,-5.8558334E-2,-6.604578E-1,5.3341676E-2,-7.2237045E-2,-3.428464E-2,4.387258E-2,1.4345942E-1,-5.9726715E-2,8.8467725E-2,-3.5308085E-2,-5.4380108E-2,-7.25825E-3,-6.5132074E-2,5.3323705E-2],"split_indices":[14,12,20,4,14,20,4,0,3,4,24,14,4,0,0,0,0,0,0,0,0,0,0,0,0,0,0],"split_type":[0,0,0,0,0,0,0,0,0,0,0,0,0,0,0,0,0,0,0,0,0,0,0,0,0,0,0],"sum_hessian":[4.240922E4,2.13311E4,2.107812E4,1.710728E4,4.2238193E3,1.8522572E4,2.5555469E3,3.9154514E2,1.6715734E4,3.9066733E3,3.1714615E2,1.9554391E3,1.6567135E4,6.342896E2,1.9212572E3,1.6597912E4,1.1782252E2,2.9620972E3,9.445761E2,2.6261768E2,5.4528496E1,6.162183E2,1.3392207E3,1.4658519E4,1.9086155E3,3.0860165E2,1.6126555E3],"tree_param":{"num_deleted":"0","num_feature":"30","num_nodes":"27","size_leaf_vector":"1"}},{"base_weights":[2.4129631E-2,9.433965E-1,-5.4645807E-1,1.0944309E0,3.4321916E-1,6.469151E-1,-6.285977E-1,1.0986242E0,-6.87811E-2,-2.0369778E0,5.039337E-1,9.557636E-1,-6.461128E-2,5.920386E-1,-6.904412E-1,5.551979E-2,3.4711376E-2,-1.20735876E-1,-8.551215E-2,3.592947E-2,-4.1722607E-2,5.572025E-2,-6.596861E-2,-6.211102E-2,4.9154993E-2,-3.973441E-2,7.654407E-3],"categories":[],"categories_nodes":[],"categories_segments":[],"categories_sizes":[],"default_left":[0,0,0,0,0,0,0,0,0,0,0,0,0,0,0,0,0,0,0,0,0,0,0,0,0,0,0],"id":33,"left_children":[1,3,5,7,9,11,13,15,-1,17,19,21,-1,23,25,-1,-1,-1,-1,-1,-1,-1,-1,-1,-1,-1,-1],"loss_changes":[2.1637299E4,1.4317217E3,2.49538E3,1.3224512E2,1.2166473E3,9.8318695E2,1.7981133E3,5.921289E1,0E0,2.0702332E1,8.560481E2,5.121527E2,0E0,8.253418E2,1.9933008E3,0E0,0E0,0E0,0E0,0E0,0E0,0E0,0E0,0E0,0E0,0E0,0E0],"parents":[2147483647,0,0,1,1,2,2,3,3,4,4,5,5,6,6,7,7,9,9,10,10,11,11,13,13,14,14],"right_children":[2,4,6,8,10,12,14,16,-1,18,20,22,-1,24,26,-1,-1,-1,-1,-1,-1,-1,-1,-1,-1,-1,-1],"split_conditions":[-1.8631431E0,-3.7718112E0,-1.2781354E0,1.761454E0,-9.785208E-1,7.242727E-2,-1.314254E0,5.312693E-1,-6.87811E-2,2.8148055E-2,2.3294735E0,4.7575548E-1,-6.461128E-2,9.118684E-1,1.0334257E0,5.551979E-2,3.4711376E-2,-1.20735876E-1,-8.551215E-2,3.592947E-2,-4.1722607E-2,5.572025E-2,-6.596861E-2,-6.211102E-2,4.9154993E-2,-3.973441E-2,7.654407E-3],"split_indices":[14,14,20,7,24,13,21,7,0,22,17,25,0,6,7,0,0,0,0,0,0,0,0,0,0,0,0],"split_type":[0,0,0,0,0,0,0,0,0,0,0,0,0,0,0,0,0,0,0,0,0,0,0,0,0,0,0],"sum_hessian":[4.124945E4,1.5797553E4,2.5451896E4,1.2620729E4,3.1768247E3,1.6385906E3,2.3813307E4,1.2599893E4,2.0835314E1,2.0019817E2,2.9766265E3,1.413904E3,2.2468652E2,1.1479082E3,2.2665398E4,1.2241802E4,3.5809113E2,8.988789E1,1.1031028E2,2.5656074E3,4.110193E2,1.3222181E3,9.168589E1,2.0134238E2,9.4656586E2,2.0172457E4,2.4929407E3],"tree_param":{"num_deleted":"0","num_feature":"30","num_nodes":"27","size_leaf_vector":"1"}},{"base_weights":[2.738296E-2,9.323181E-1,-5.247633E-1,1.0906146E0,2.7333665E-1,-8.786722E-1,-3.3885326E-2,1.093352E0,-5.6992393E-2,5.995449E-1,-1.0506964E0,-1.0538976E0,4.999137E-2,9.8272467E-1,-2.964633E-1,5.4997575E-2,2.8018346E-2,-4.1372E-2,4.2343836E-2,4.0037315E-2,-9.3135916E-2,-7.130762E-3,-5.6420542E-2,-4.2123687E-2,6.974721E-2,6.2214144E-2,-6.154974E-2,2.3627378E-2,-4.2303886E-2],"categories":[],"categories_nodes":[],"categories_segments":[],"categories_sizes":[],"default_left":[0,0,0,0,0,0,0,0,0,0,0,0,0,0,0,0,0,0,0,0,0,0,0,0,0,0,0,0,0],"id":34,"left_children":[1,3,5,7,9,11,13,15,-1,17,19,21,23,25,27,-1,-1,-1,-1,-1,-1,-1,-1,-1,-1,-1,-1,-1,-1],"loss_changes":[2.0054732E4,1.5862754E3,4.3305347E3,7.612012E1,1.273568E3,2.3570557E3,2.7882083E3,4.2467773E1,0E0,8.3549817E2,8.779063E2,8.272588E2,2.762103E3,1.2429805E3,3.5088716E3,0E0,0E0,0E0,0E0,0E0,0E0,0E0,0E0,0E0,0E0,0E0,0E0,0E0,0E0],"parents":[2147483647,0,0,1,1,2,2,3,3,4,4,5,5,6,6,7,7,9,9,10,10,11,11,12,12,13,13,14,14],"right_children":[2,4,6,8,10,12,14,16,-1,18,20,22,24,26,28,-1,-1,-1,-1,-1,-1,-1,-1,-1,-1,-1,-1,-1,-1],"split_conditions":[-1.8631431E0,-1.4172139E0,5.2358633E-1,5.2968055E-1,4.4189227E-1,8.6197406E-1,-4.5957425E-1,-2.7493227E0,-5.6992393E-2,-7.0522875E-2,-1.7335463E0,-1.5679529E0,1.0861687E-1,2.8782767E-1,-3.2264403E-1,5.4997575E-2,2.8018346E-2,-4.1372E-2,4.2343836E-2,4.0037315E-2,-9.3135916E-2,-7.130762E-3,-5.6420542E-2,-4.2123687E-2,6.974721E-2,6.2214144E-2,-6.154974E-2,2.3627378E-2,-4.2303886E-2],"split_indices":[14,12,4,10,15,7,20,14,0,27,10,13,4,12,29,0,0,0,0,0,0,0,0,0,0,0,0,0,0],"split_type":[0,0,0,0,0,0,0,0,0,0,0,0,0,0,0,0,0,0,0,0,0,0,0,0,0,0,0,0,0],"sum_hessian":[4.013506E4,1.5208514E4,2.4926547E4,1.2262287E4,2.9462266E3,1.448354E4,1.0443006E4,1.2247766E4,1.4521466E1,2.364276E3,5.8195056E2,1.2184388E4,2.299153E3,2.1430652E3,8.29994E3,1.2096915E4,1.5085063E2,3.4890677E2,2.0153693E3,1.77426E2,4.0452457E2,9.211997E2,1.12631875E4,1.3822876E3,9.168656E2,1.917003E3,2.2606221E2,3.4595457E3,4.840395E3],"tree_param":{"num_deleted":"0","num_feature":"30","num_nodes":"29","size_leaf_vector":"1"}},{"base_weights":[4.2291623E-2,8.084039E-1,-5.919168E-1,9.936492E-1,-1.3503473E-1,-9.1878456E-1,-5.442516E-2,1.0309634E0,-1.3452107E0,3.2726407E-1,-1.2878332E0,-2.2421052E-1,-1.0523139E0,2.5761073E0,-2.0326363E-1,-5.8363356E-2,5.2662846E-2,-6.008795E-2,-8.857063E-2,3.0098513E-2,-8.6405836E-2,-6.054718E-2,-7.0741065E-2,7.642348E-2,-4.187766E-2,-5.4993875E-2,4.7816172E-2,1.5771954E-1,-5.8434363E-2,2.4122398E-2,-3.3579875E-2],"categories":[],"categories_nodes":[],"categories_segments":[],"categories_sizes":[],"default_left":[0,0,0,0,0,0,0,0,0,0,0,0,0,0,0,0,0,0,0,0,0,0,0,0,0,0,0,0,0,0,0],"id":35,"left_children":[1,3,5,7,9,11,13,15,17,19,21,23,25,27,29,-1,-1,-1,-1,-1,-1,-1,-1,-1,-1,-1,-1,-1,-1,-1,-1],"loss_changes":[1.8943312E4,3.0861348E3,3.7474448E3,1.2895146E3,1.5453845E3,1.2299414E3,3.159097E3,7.1321875E2,1.20685425E1,1.1697987E3,6.390869E0,2.3018127E3,1.0639014E3,9.394004E2,2.4526548E3,0E0,0E0,0E0,0E0,0E0,0E0,0E0,0E0,0E0,0E0,0E0,0E0,0E0,0E0,0E0,0E0],"parents":[2147483647,0,0,1,1,2,2,3,3,4,4,5,5,6,6,7,7,8,8,9,9,10,10,11,11,12,12,13,13,14,14],"right_children":[2,4,6,8,10,12,14,16,18,20,22,24,26,28,30,-1,-1,-1,-1,-1,-1,-1,-1,-1,-1,-1,-1,-1,-1,-1,-1],"split_conditions":[-1.0866854E0,-2.763427E-1,6.3038516E-1,4.1697216E-1,-3.2230332E-1,-1.0252284E0,6.441573E-1,-5.375104E-1,1.2715857E0,7.1887153E-1,4.9150124E-1,-1.31477E0,2.4931118E0,-1.8557718E-3,-6.0334396E-1,-5.8363356E-2,5.2662846E-2,-6.008795E-2,-8.857063E-2,3.0098513E-2,-8.6405836E-2,-6.054718E-2,-7.0741065E-2,7.642348E-2,-4.187766E-2,-5.4993875E-2,4.7816172E-2,1.5771954E-1,-5.8434363E-2,2.4122398E-2,-3.3579875E-2],"split_indices":[14,12,4,10,3,26,4,4,4,2,4,19,26,14,12,0,0,0,0,0,0,0,0,0,0,0,0,0,0,0,0],"split_type":[0,0,0,0,0,0,0,0,0,0,0,0,0,0,0,0,0,0,0,0,0,0,0,0,0,0,0,0,0,0,0],"sum_hessian":[3.8986062E4,1.765675E4,2.132931E4,1.4758792E4,2.8979585E3,1.32629375E4,8.0663726E3,1.4527578E4,2.3121414E2,2.06897E3,8.289886E2,2.1390435E3,1.1123894E4,4.3109012E2,7.6352827E3,1.453372E2,1.4382241E4,1.7584702E2,5.5367134E1,1.825672E3,2.4329796E2,5.229096E2,3.06079E2,5.541162E2,1.5849271E3,1.08670205E4,2.568732E2,3.7356125E2,5.752889E1,3.0985325E3,4.53675E3],"tree_param":{"num_deleted":"0","num_feature":"30","num_nodes":"31","size_leaf_vector":"1"}},{"base_weights":[5.520148E-2,7.5067085E-1,-6.4979565E-1,9.672701E-1,-9.987398E-2,-8.277618E-1,4.8624754E-1,-5.7195764E-2,1.0152977E0,-2.8716078E-1,2.0072632E0,-9.920422E-1,-8.8021375E-2,9.348261E-1,-7.3263776E-1,5.1640775E-2,-7.008937E-2,-3.1738266E-2,4.102986E-2,1.2872039E-1,-5.8181584E-2,1.8342456E-2,-5.220033E-2,1.7647285E-2,-6.527775E-2,6.9783136E-2,-1.7037263E-2,5.676927E-2,-6.258119E-2],"categories":[],"categories_nodes":[],"categories_segments":[],"categories_sizes":[],"default_left":[0,0,0,0,0,0,0,0,0,0,0,0,0,0,0,0,0,0,0,0,0,0,0,0,0,0,0,0,0],"id":36,"left_children":[1,3,5,7,9,11,13,-1,15,17,19,21,23,25,27,-1,-1,-1,-1,-1,-1,-1,-1,-1,-1,-1,-1,-1,-1],"loss_changes":[1.8943412E4,3.583213E3,3.8795068E3,1.5729727E3,1.5588375E3,2.0158184E3,1.4218506E3,0E0,6.4325195E2,1.3971931E3,5.8284875E2,9.588877E2,1.6195007E3,1.1176011E3,6.7986096E2,0E0,0E0,0E0,0E0,0E0,0E0,0E0,0E0,0E0,0E0,0E0,0E0,0E0,0E0],"parents":[2147483647,0,0,1,1,2,2,3,3,4,4,5,5,6,6,8,8,9,9,10,10,11,11,12,12,13,13,14,14],"right_children":[2,4,6,8,10,12,14,-1,16,18,20,22,24,26,28,-1,-1,-1,-1,-1,-1,-1,-1,-1,-1,-1,-1,-1,-1],"split_conditions":[-8.41771E-1,-3.061372E-1,1.0334257E0,-5.375104E-1,-8.615503E-1,1.219936E0,-6.1246913E-2,-5.7195764E-2,8.131703E-1,1.3390442E0,-7.134721E-1,-1.2781354E0,1.8926969E-1,-2.2966107E-2,-2.1044292E0,5.1640775E-2,-7.008937E-2,-3.1738266E-2,4.102986E-2,1.2872039E-1,-5.8181584E-2,1.8342456E-2,-5.220033E-2,1.7647285E-2,-6.527775E-2,6.9783136E-2,-1.7037263E-2,5.676927E-2,-6.258119E-2],"split_indices":[14,12,7,4,14,4,26,0,3,4,24,20,8,2,19,0,0,0,0,0,0,0,0,0,0,0,0,0,0],"split_type":[0,0,0,0,0,0,0,0,0,0,0,0,0,0,0,0,0,0,0,0,0,0,0,0,0,0,0,0,0],"sum_hessian":[3.863407E4,1.9448422E4,1.9185648E4,1.5500848E4,3.9475737E3,1.6587426E4,2.598222E3,3.4427905E2,1.5156568E4,3.6261384E3,3.214351E2,1.3572849E4,3.0145771E3,1.8994227E3,6.9879926E2,1.504808E4,1.084887E2,2.760382E3,8.657564E2,2.7282574E2,4.8609364E1,4.9969006E2,1.3073158E4,2.2135737E3,8.0100336E2,1.3952534E3,5.0416937E2,1.5167542E2,5.4712384E2],"tree_param":{"num_deleted":"0","num_feature":"30","num_nodes":"29","size_leaf_vector":"1"}},{"base_weights":[4.208991E-2,1.0720975E0,-4.167558E-1,1.0794928E0,-6.0988963E-2,-8.35698E-1,7.5998545E-2,1.089537E0,8.01577E-1,-1.0256495E0,-2.5771615E-1,5.898237E-1,-3.3258966E-1,5.452041E-2,-1.5954417E-1,-1.2946424E-1,5.1955115E-2,-1.3077497E-2,-5.6374986E-2,6.7095906E-2,-3.0068422E-2,-6.6476904E-2,3.6614224E-2,4.129796E-2,-3.5557278E-2],"categories":[],"categories_nodes":[],"categories_segments":[],"categories_sizes":[],"default_left":[0,0,0,0,0,0,0,0,0,0,0,0,0,0,0,0,0,0,0,0,0,0,0,0,0],"id":37,"left_children":[1,3,5,7,-1,9,11,13,15,17,19,21,23,-1,-1,-1,-1,-1,-1,-1,-1,-1,-1,-1,-1],"loss_changes":[1.763736E4,1.9624707E2,5.329738E3,3.1129883E1,0E0,1.5317256E3,2.4910867E3,4.472754E1,3.2781964E2,8.170166E2,1.8989375E3,1.4381017E3,2.899463E3,0E0,0E0,0E0,0E0,0E0,0E0,0E0,0E0,0E0,0E0,0E0,0E0],"parents":[2147483647,0,0,1,1,2,2,3,3,5,5,6,6,7,7,8,8,9,9,10,10,11,11,12,12],"right_children":[2,4,6,8,-1,10,12,14,16,18,20,22,24,-1,-1,-1,-1,-1,-1,-1,-1,-1,-1,-1,-1],"split_conditions":[-3.7718112E0,4.1697216E-1,5.2358633E-1,6.2043685E-1,-6.0988963E-2,7.152729E-2,-4.438695E-1,2.209419E0,2.53599E0,-1.2952307E0,-1.3448716E0,-1.0290506E0,-3.4707233E-1,5.452041E-2,-1.5954417E-1,-1.2946424E-1,5.1955115E-2,-1.3077497E-2,-5.6374986E-2,6.7095906E-2,-3.0068422E-2,-6.6476904E-2,3.6614224E-2,4.129796E-2,-3.5557278E-2],"split_indices":[14,10,4,7,0,29,14,16,4,3,13,11,29,0,0,0,0,0,0,0,0,0,0,0,0],"split_type":[0,0,0,0,0,0,0,0,0,0,0,0,0,0,0,0,0,0,0,0,0,0,0,0,0],"sum_hessian":[3.731675E4,1.1500136E4,2.5816611E4,1.1463675E4,3.6460915E1,1.3953003E4,1.1863609E4,1.1060996E4,4.0267877E2,1.0501086E4,3.4519172E3,5.254856E3,6.6087534E3,1.1059491E4,1.5055668E0,2.571243E1,3.7696634E2,1.2355221E3,9.265563E3,6.0992596E2,2.8419912E3,3.6250626E2,4.8923496E3,1.6273029E3,4.9814507E3],"tree_param":{"num_deleted":"0","num_feature":"30","num_nodes":"25","size_leaf_vector":"1"}},{"base_weights":[5.8417726E-2,1.0645949E0,-3.5590154E-1,1.071648E0,-5.9682645E-2,-6.376118E-2,-6.896251E-1,1.0723134E0,-7.493805E-2,1.5988614E-1,-8.875035E-1,5.328842E-1,-8.085278E-1,5.3648796E-2,-7.096155E-2,5.1908284E-2,-1.9697908E-3,-5.39709E-2,7.676977E-2,-6.202903E-2,3.916493E-2,1.3285917E-2,-4.5393925E-2],"categories":[],"categories_nodes":[],"categories_segments":[],"categories_sizes":[],"default_left":[0,0,0,0,0,0,0,0,0,0,0,0,0,0,0,0,0,0,0,0,0,0,0],"id":38,"left_children":[1,3,5,7,-1,9,11,13,-1,15,17,19,21,-1,-1,-1,-1,-1,-1,-1,-1,-1,-1],"loss_changes":[1.5151742E4,1.7012793E2,2.5099194E3,1.9685547E1,0E0,2.529358E3,1.7472222E3,1.895996E1,0E0,1.8899843E3,1.3648333E3,4.7429108E2,1.1691406E3,0E0,0E0,0E0,0E0,0E0,0E0,0E0,0E0,0E0,0E0],"parents":[2147483647,0,0,1,1,2,2,3,3,5,5,6,6,7,7,9,9,10,10,11,11,12,12],"right_children":[2,4,6,8,-1,10,12,14,-1,16,18,20,22,-1,-1,-1,-1,-1,-1,-1,-1,-1,-1],"split_conditions":[-3.7718112E0,5.2968055E-1,-2.1853375E-1,-1.1396102E-1,-5.9682645E-2,1.8926969E-1,-1.5739322E0,3.1595543E-1,-7.493805E-2,-1.31477E0,2.7355347E0,-3.1456E-1,-1.8697809E0,5.3648796E-2,-7.096155E-2,5.1908284E-2,-1.9697908E-3,-5.39709E-2,7.676977E-2,-6.202903E-2,3.916493E-2,1.3285917E-2,-4.5393925E-2],"split_indices":[14,10,26,3,0,8,8,12,0,19,23,19,19,0,0,0,0,0,0,0,0,0,0],"split_type":[0,0,0,0,0,0,0,0,0,0,0,0,0,0,0,0,0,0,0,0,0,0,0],"sum_hessian":[3.6343785E4,1.0600013E4,2.5743771E4,1.0567533E4,3.2479946E1,1.3727745E4,1.2016027E4,1.056538E4,2.152404E0,1.0797117E4,2.9306282E3,1.0647916E3,1.0951235E4,1.0563142E4,2.2387168E0,1.9960175E3,8.8011E3,2.7160483E3,2.1457993E2,1.3125732E2,9.335343E2,9.269334E2,1.0024302E4],"tree_param":{"num_deleted":"0","num_feature":"30","num_nodes":"23","size_leaf_vector":"1"}},{"base_weights":[6.364481E-2,7.161936E-1,-5.786897E-1,-5.7610314E-2,8.312903E-1,-8.771945E-1,-1.0403195E-1,1.014464E0,2.2660106E-1,-1.0083857E0,9.397964E-2,2.554035E0,-2.2445665E-1,4.9535822E-2,1.7740929E-1,-6.3034505E-2,2.371038E-2,-3.433574E-3,-5.514654E-2,4.8555173E-2,-5.7697542E-2,-5.833773E-2,1.7687158E-1,-3.202695E-2,2.5473798E-2],"categories":[],"categories_nodes":[],"categories_segments":[],"categories_sizes":[],"default_left":[0,0,0,0,0,0,0,0,0,0,0,0,0,0,0,0,0,0,0,0,0,0,0,0,0],"id":39,"left_children":[1,3,5,-1,7,9,11,13,15,17,19,21,23,-1,-1,-1,-1,-1,-1,-1,-1,-1,-1,-1,-1],"loss_changes":[1.4890901E4,3.7906953E3,2.5365693E3,0E0,1.8385303E3,1.4004434E3,2.2134834E3,7.6310254E2,1.4224199E3,8.602158E2,1.433865E3,1.1007815E3,2.0202495E3,0E0,0E0,0E0,0E0,0E0,0E0,0E0,0E0,0E0,0E0,0E0,0E0],"parents":[2147483647,0,0,1,1,2,2,4,4,5,5,6,6,7,7,8,8,9,9,10,10,11,11,12,12],"right_children":[2,4,6,-1,8,10,12,14,16,18,20,22,24,-1,-1,-1,-1,-1,-1,-1,-1,-1,-1,-1,-1],"split_conditions":[-8.41771E-1,-3.4328553E-1,6.3038516E-1,-5.7610314E-2,-4.1304147E-1,8.6526734E-1,6.441573E-1,-4.2424375E-1,6.596489E-2,-9.9833876E-1,-6.9179296E-1,6.276189E-1,7.5378776E-1,4.9535822E-2,1.7740929E-1,-6.3034505E-2,2.371038E-2,-3.433574E-3,-5.514654E-2,4.8555173E-2,-5.7697542E-2,-5.833773E-2,1.7687158E-1,-3.202695E-2,2.5473798E-2],"split_indices":[14,4,4,0,12,29,4,12,18,6,26,1,22,0,0,0,0,0,0,0,0,0,0,0,0],"split_type":[0,0,0,0,0,0,0,0,0,0,0,0,0,0,0,0,0,0,0,0,0,0,0,0,0],"sum_hessian":[3.5524047E4,1.7621855E4,1.790219E4,1.0220237E3,1.6599832E4,1.098994E4,6.9122495E3,1.2739944E4,3.859888E3,9.682008E3,1.307933E3,2.9871317E2,6.6135366E3,1.2623025E4,1.16919365E2,5.503035E2,3.3095845E3,8.852228E2,8.796785E3,7.6820917E2,5.3972375E2,6.240615E1,2.3630702E2,4.2208003E3,2.392736E3],"tree_param":{"num_deleted":"0","num_feature":"30","num_nodes":"25","size_leaf_vector":"1"}},{"base_weights":[4.7636636E-2,1.055737E0,-3.7909576E-1,1.0630386E0,-6.0212832E-2,-9.9253136E-1,-1.4546704E-1,1.07086E0,4.8184153E-1,2.699666E-1,-1.1057577E0,3.4545186E-1,-4.6780324E-1,5.356387E-2,-7.173778E-2,-1.5843493E-1,5.160581E-2,-6.467687E-2,6.5281264E-2,-5.4985642E-2,-5.8120824E-2,3.6322232E-2,-1.2970964E-2,-3.5275314E-2,3.77191E-2],"categories":[],"categories_nodes":[],"categories_segments":[],"categories_sizes":[],"default_left":[0,0,0,0,0,0,0,0,0,0,0,0,0,0,0,0,0,0,0,0,0,0,0,0,0],"id":40,"left_children":[1,3,5,7,-1,9,11,13,15,17,19,21,23,-1,-1,-1,-1,-1,-1,-1,-1,-1,-1,-1,-1],"loss_changes":[1.4822944E4,1.7038184E2,3.4694143E3,4.5921875E1,0E0,9.547534E2,2.774628E3,1.2075195E1,2.79411E2,8.9282495E2,8.203125E-1,1.6018048E3,3.0754456E3,0E0,0E0,0E0,0E0,0E0,0E0,0E0,0E0,0E0,0E0,0E0,0E0],"parents":[2147483647,0,0,1,1,2,2,3,3,5,5,6,6,7,7,8,8,9,9,10,10,11,11,12,12],"right_children":[2,4,6,8,-1,10,12,14,16,18,20,22,24,-1,-1,-1,-1,-1,-1,-1,-1,-1,-1,-1,-1],"split_conditions":[-3.7718112E0,4.1697216E-1,-2.0800664E-1,8.956271E-1,-6.0212832E-2,-1.8631431E0,-4.438695E-1,1.0008093E0,6.453537E-1,1.296034E0,1.0334257E0,5.4669328E-2,1.0334257E0,5.356387E-2,-7.173778E-2,-1.5843493E-1,5.160581E-2,-6.467687E-2,6.5281264E-2,-5.4985642E-2,-5.8120824E-2,3.6322232E-2,-1.2970964E-2,-3.5275314E-2,3.77191E-2],"split_indices":[14,10,4,7,0,14,14,1,26,0,7,0,7,0,0,0,0,0,0,0,0,0,0,0,0],"split_type":[0,0,0,0,0,0,0,0,0,0,0,0,0,0,0,0,0,0,0,0,0,0,0,0,0],"sum_hessian":[3.4454883E4,1.0246758E4,2.4208123E4,1.0214288E4,3.2470425E1,6.6759434E3,1.753218E4,1.0077822E4,1.3646545E2,5.493366E2,6.126607E3,6.9489053E3,1.0583274E4,1.0076717E4,1.1058167E0,1.7252619E1,1.1921284E2,2.1878867E2,3.3054794E2,5.5544277E3,5.72179E2,4.2633374E3,2.6855676E3,8.860431E3,1.722844E3],"tree_param":{"num_deleted":"0","num_feature":"30","num_nodes":"25","size_leaf_vector":"1"}},{"base_weights":[5.1287387E-2,1.0501992E0,-3.3365875E-1,1.0578573E0,-5.9365094E-2,8.334984E-2,-6.031542E-1,1.0600115E0,-1.5960918E-1,7.871608E-1,-2.3966494E-1,-7.8846294E-1,4.253305E-1,5.3497832E-2,2.9537398E-2,6.3694134E-2,-2.549232E-2,-2.5116343E-2,2.875342E-2,2.7990652E-2,-4.792245E-2,3.7635654E-2,-6.068596E-2],"categories":[],"categories_nodes":[],"categories_segments":[],"categories_sizes":[],"default_left":[0,0,0,0,0,0,0,0,0,0,0,0,0,0,0,0,0,0,0,0,0,0,0],"id":41,"left_children":[1,3,5,7,-1,9,11,13,-1,15,17,19,21,-1,-1,-1,-1,-1,-1,-1,-1,-1,-1],"loss_changes":[1.2954191E4,1.6183105E2,2.7329084E3,8.8893555E1,0E0,2.1706265E3,2.8156045E3,4.2936523E1,0E0,1.8967073E3,1.4008167E3,2.869225E3,1.2113723E3,0E0,0E0,0E0,0E0,0E0,0E0,0E0,0E0,0E0,0E0],"parents":[2147483647,0,0,1,1,2,2,3,3,5,5,6,6,7,7,9,9,10,10,11,11,12,12],"right_children":[2,4,6,8,-1,10,12,14,-1,16,18,20,22,-1,-1,-1,-1,-1,-1,-1,-1,-1,-1],"split_conditions":[-3.7718112E0,4.1697216E-1,-4.438695E-1,1.4235559E0,-5.9365094E-2,-7.581903E-1,8.0742705E-1,6.2043685E-1,-1.5960918E-1,-1.5715232E-1,3.8241845E-1,-1.8088108E0,2.017903E-1,5.3497832E-2,2.9537398E-2,6.3694134E-2,-2.549232E-2,-2.5116343E-2,2.875342E-2,2.7990652E-2,-4.792245E-2,3.7635654E-2,-6.068596E-2],"split_indices":[14,10,14,7,0,13,20,7,0,0,29,19,13,0,0,0,0,0,0,0,0,0,0],"split_type":[0,0,0,0,0,0,0,0,0,0,0,0,0,0,0,0,0,0,0,0,0,0,0],"sum_hessian":[3.3686707E4,9.370111E3,2.4316596E4,9.338676E3,3.143575E1,9.546044E3,1.4770552E4,9.334695E3,3.9809E0,3.0025046E3,6.5435396E3,1.2515742E4,2.254809E3,9.139716E3,1.9497945E2,2.1832314E3,8.192732E2,4.948557E3,1.5949822E3,1.4010178E3,1.1114725E4,1.8798666E3,3.7494244E2],"tree_param":{"num_deleted":"0","num_feature":"30","num_nodes":"23","size_leaf_vector":"1"}},{"base_weights":[2.6672939E-2,1.04593E0,-3.71144E-1,1.0527611E0,-1.6967001E0,1.614473E-1,-5.8601815E-1,1.0659287E0,6.279181E-1,-1.5158845E-1,-5.85172E-2,4.304171E-1,-5.822704E-1,1.9527367E-1,-7.65777E-1,5.3342063E-2,-5.1381897E-2,5.011306E-2,-1.0403973E-1,2.7123332E-2,-7.936412E-2,3.531254E-2,-5.8789134E-2,3.6982045E-2,-5.9650667E-2,1.876024E-2,-4.482247E-2],"categories":[],"categories_nodes":[],"categories_segments":[],"categories_sizes":[],"default_left":[0,0,0,0,0,0,0,0,0,0,0,0,0,0,0,0,0,0,0,0,0,0,0,0,0,0,0],"id":42,"left_children":[1,3,5,7,9,11,13,15,17,-1,-1,19,21,23,25,-1,-1,-1,-1,-1,-1,-1,-1,-1,-1,-1,-1],"loss_changes":[1.3085145E4,1.7151758E2,2.6564238E3,4.988867E1,1.2538017E1,1.3351835E3,2.3229717E3,1.7839844E1,2.800429E2,0E0,0E0,1.1090093E3,1.3566482E3,2.3393938E3,2.0050322E3,0E0,0E0,0E0,0E0,0E0,0E0,0E0,0E0,0E0,0E0,0E0,0E0],"parents":[2147483647,0,0,1,1,2,2,3,3,4,4,5,5,6,6,7,7,8,8,11,11,12,12,13,13,14,14],"right_children":[2,4,6,8,10,12,14,16,18,-1,-1,20,22,24,26,-1,-1,-1,-1,-1,-1,-1,-1,-1,-1,-1,-1],"split_conditions":[-3.7718112E0,1.3554769E0,-8.41771E-1,5.312693E-1,-1.9769618E-1,1.1646209E-1,-3.688842E-1,3.1595543E-1,-1.6397454E0,-1.5158845E-1,-5.85172E-2,1.1209775E0,-1.2126896E0,-1.2822036E-1,-1.8088108E0,5.3342063E-2,-5.1381897E-2,5.011306E-2,-1.0403973E-1,2.7123332E-2,-7.936412E-2,3.531254E-2,-5.8789134E-2,3.6982045E-2,-5.9650667E-2,1.876024E-2,-4.482247E-2],"split_indices":[14,7,14,7,9,27,8,12,9,0,0,5,13,13,19,0,0,0,0,0,0,0,0,0,0,0,0],"split_type":[0,0,0,0,0,0,0,0,0,0,0,0,0,0,0,0,0,0,0,0,0,0,0,0,0,0,0],"sum_hessian":[3.2268979E4,9.058453E3,2.3210527E4,9.036562E3,2.1891323E1,6.6724097E3,1.6538117E4,8.763438E3,2.7312302E2,4.8442564E0,1.7047068E1,4.900527E3,1.7718826E3,3.0933416E3,1.3444775E4,8.76011E3,3.3281589E0,2.4051405E2,3.2608963E1,4.643395E3,2.5713196E2,5.587155E2,1.213167E3,2.2223813E3,8.709603E2,1.3813629E3,1.2063412E4],"tree_param":{"num_deleted":"0","num_feature":"30","num_nodes":"27","size_leaf_vector":"1"}},{"base_weights":[2.1419404E-2,1.0437948E0,-3.8724002E-1,1.051146E0,-5.776569E-2,-7.234923E-1,4.7580132E-4,1.0633887E0,7.5435746E-1,8.452977E-2,-9.593557E-1,2.5860697E-1,-6.9628745E-1,5.322026E-2,-1.7093764E-1,-1.338699E-1,4.8859846E-2,-4.150831E-2,4.3328434E-2,-5.070278E-2,5.6342453E-2,5.4449517E-2,1.1737931E-3,-5.05072E-2,5.743977E-2],"categories":[],"categories_nodes":[],"categories_segments":[],"categories_sizes":[],"default_left":[0,0,0,0,0,0,0,0,0,0,0,0,0,0,0,0,0,0,0,0,0,0,0,0,0],"id":43,"left_children":[1,3,5,7,-1,9,11,13,15,17,19,21,23,-1,-1,-1,-1,-1,-1,-1,-1,-1,-1,-1,-1],"loss_changes":[1.31238E4,1.4622852E2,2.9256848E3,3.1683594E1,0E0,2.290561E3,1.8750096E3,4.2750977E1,2.7611584E2,1.9438525E3,1.0627402E3,1.4852135E3,1.6331217E3,0E0,0E0,0E0,0E0,0E0,0E0,0E0,0E0,0E0,0E0,0E0,0E0],"parents":[2147483647,0,0,1,1,2,2,3,3,5,5,6,6,7,7,8,8,9,9,10,10,11,11,12,12],"right_children":[2,4,6,8,-1,10,12,14,16,18,20,22,24,-1,-1,-1,-1,-1,-1,-1,-1,-1,-1,-1,-1],"split_conditions":[-3.7718112E0,5.2968055E-1,5.364017E-1,6.2043685E-1,-5.776569E-2,-8.9516187E-1,1.3562606E-1,2.209419E0,1.6685694E0,5.5684114E-1,2.4931118E0,-4.7082362E-1,9.226787E-1,5.322026E-2,-1.7093764E-1,-1.338699E-1,4.8859846E-2,-4.150831E-2,4.3328434E-2,-5.070278E-2,5.6342453E-2,5.4449517E-2,1.1737931E-3,-5.05072E-2,5.743977E-2],"split_indices":[14,10,4,7,0,10,8,16,11,7,26,7,21,0,0,0,0,0,0,0,0,0,0,0,0],"split_type":[0,0,0,0,0,0,0,0,0,0,0,0,0,0,0,0,0,0,0,0,0,0,0,0,0],"sum_hessian":[3.1409463E4,8.969131E3,2.2440332E4,8.939769E3,2.9362165E1,1.2017292E4,1.042304E4,8.583127E3,3.5664175E2,2.7154233E3,9.301869E3,7.605898E3,2.8171423E3,8.581943E3,1.1838634E0,2.107464E1,3.355671E2,1.2515323E3,1.463891E3,9.064708E3,2.3716069E2,1.677621E3,5.928277E3,2.407986E3,4.091562E2],"tree_param":{"num_deleted":"0","num_feature":"30","num_nodes":"25","size_leaf_vector":"1"}},{"base_weights":[1.7999189E-2,9.5040756E-1,-3.860547E-1,-5.5844635E-2,9.913679E-1,-1.0964022E0,-1.4883284E-1,1.0683192E0,2.8336623E-1,-1.242255E0,-1.0898507E0,3.301594E-1,-4.9410838E-1,1.04233585E-1,5.24815E-2,5.0478376E-2,-8.428823E-2,-5.613957E-2,-6.7360684E-2,-5.4198492E-2,-5.6553062E-2,-3.458569E-2,2.9707659E-2,-3.7119832E-2,3.7078355E-2],"categories":[],"categories_nodes":[],"categories_segments":[],"categories_sizes":[],"default_left":[0,0,0,0,0,0,0,0,0,0,0,0,0,0,0,0,0,0,0,0,0,0,0,0,0],"id":44,"left_children":[1,3,5,-1,7,9,11,13,15,17,19,21,23,-1,-1,-1,-1,-1,-1,-1,-1,-1,-1,-1,-1],"loss_changes":[1.14663E4,7.802676E2,3.5779448E3,0E0,4.9130176E2,3.725586E0,2.632937E3,1.5239941E2,1.2685858E3,1.2628479E0,8.7890625E-3,1.7994746E3,2.8388547E3,0E0,0E0,0E0,0E0,0E0,0E0,0E0,0E0,0E0,0E0,0E0,0E0],"parents":[2147483647,0,0,1,1,2,2,4,4,5,5,6,6,7,7,8,8,9,9,10,10,11,11,12,12],"right_children":[2,4,6,-1,8,10,12,14,16,18,20,22,24,-1,-1,-1,-1,-1,-1,-1,-1,-1,-1,-1,-1],"split_conditions":[-1.4709982E0,-9.324187E-1,-1.9662014E-1,-5.5844635E-2,1.6897543E-1,-1.8631431E0,-4.438695E-1,-9.1649264E-1,-3.7718112E0,-5.375104E-1,9.147283E-1,-4.862576E-1,1.0334257E0,1.04233585E-1,5.24815E-2,5.0478376E-2,-8.428823E-2,-5.613957E-2,-6.7360684E-2,-5.4198492E-2,-5.6553062E-2,-3.458569E-2,2.9707659E-2,-3.7119832E-2,3.7078355E-2],"split_indices":[10,4,4,0,16,14,14,4,14,4,7,11,7,0,0,0,0,0,0,0,0,0,0,0,0],"split_type":[0,0,0,0,0,0,0,0,0,0,0,0,0,0,0,0,0,0,0,0,0,0,0,0,0],"sum_hessian":[3.0433342E4,9.200532E3,2.123281E4,1.78242E2,9.02229E3,5.31468E3,1.591813E4,8.137348E3,8.8494196E2,2.2035463E2,5.0943257E3,6.6679253E3,9.250205E3,1.4493697E2,7.992411E3,6.468687E2,2.380732E2,1.0852709E2,1.11827545E2,4.4820283E3,6.122971E2,1.3686199E3,5.2993057E3,7.702846E3,1.5473588E3],"tree_param":{"num_deleted":"0","num_feature":"30","num_nodes":"25","size_leaf_vector":"1"}},{"base_weights":[3.4260314E-2,9.6882045E-1,-3.2428065E-1,1.0446321E0,-1.0061635E0,1.2572658E-1,-5.671462E-1,1.0712748E0,-6.5940194E-2,4.9634017E-2,-1.2232176E0,2.766268E-1,-1.1933953E0,-7.972431E-1,5.65527E-1,5.217108E-2,1.2961507E-1,-5.9160855E-2,-1.2681805E-1,2.6656955E-3,6.2902115E-2,-5.7849318E-2,-6.2267847E-2,2.881256E-3,-4.950476E-2,4.6182074E-2,-3.1171758E-2],"categories":[],"categories_nodes":[],"categories_segments":[],"categories_sizes":[],"default_left":[0,0,0,0,0,0,0,0,0,0,0,0,0,0,0,0,0,0,0,0,0,0,0,0,0,0,0],"id":45,"left_children":[1,3,5,7,9,11,13,15,-1,-1,17,19,21,23,25,-1,-1,-1,-1,-1,-1,-1,-1,-1,-1,-1,-1],"loss_changes":[9.941651E3,1.2327861E3,2.3436206E3,5.0030566E2,1.33376E2,1.4966454E3,3.6301934E3,3.2923633E2,0E0,0E0,1.14557495E1,1.478457E3,1.928711E-2,1.9085098E3,1.0020655E3,0E0,0E0,0E0,0E0,0E0,0E0,0E0,0E0,0E0,0E0,0E0,0E0],"parents":[2147483647,0,0,1,1,2,2,3,3,4,4,5,5,6,6,7,7,10,10,11,11,12,12,13,13,14,14],"right_children":[2,4,6,8,10,12,14,16,-1,-1,18,20,22,24,26,-1,-1,-1,-1,-1,-1,-1,-1,-1,-1,-1,-1],"split_conditions":[-2.458576E0,7.8648406E-1,-6.7656547E-1,1.5916071E0,-2.8057647E0,8.037901E-1,1.0334257E0,1.5365909E0,-6.5940194E-2,4.9634017E-2,3.5127468E0,3.9983076E-1,7.619616E-2,-3.4707233E-1,-6.1246913E-2,5.217108E-2,1.2961507E-1,-5.9160855E-2,-1.2681805E-1,2.6656955E-3,6.2902115E-2,-5.7849318E-2,-6.2267847E-2,2.881256E-3,-4.950476E-2,4.6182074E-2,-3.1171758E-2],"split_indices":[12,9,14,14,7,3,7,14,0,0,17,3,2,29,26,0,0,0,0,0,0,0,0,0,0,0,0],"split_type":[0,0,0,0,0,0,0,0,0,0,0,0,0,0,0,0,0,0,0,0,0,0,0,0,0,0,0],"sum_hessian":[2.9667715E4,8.22556E3,2.1442156E4,7.92194E3,3.036202E2,7.5160664E3,1.3926089E4,7.8341733E3,8.776659E1,2.939053E1,2.7422968E2,6.745239E3,7.708275E2,1.1574984E4,2.3511047E3,7.6949487E3,1.3922446E2,2.67968E2,6.2616997E0,5.495776E3,1.2494634E3,4.6692505E2,3.0390247E2,2.130716E3,9.444269E3,1.8070469E3,5.440578E2],"tree_param":{"num_deleted":"0","num_feature":"30","num_nodes":"27","size_leaf_vector":"1"}},{"base_weights":[-3.1749085E-2,-5.344365E-1,7.329975E-1,1.0007607E-1,-7.152292E-1,8.578912E-1,-1.287775E0,-5.532744E-2,4.5686224E-1,-3.5245147E-1,-1.0250955E0,2.5052977E-1,1.0260981E0,-6.8629794E-2,-1.2176642E0,6.177757E-2,-1.1532587E-2,-5.5725355E-2,4.054814E-3,-1.4290238E-2,-5.6860935E-2,-7.5376175E-2,2.6090879E-2,5.2900475E-2,-1.7403829E-3,-6.738537E-2,-5.8589976E-2],"categories":[],"categories_nodes":[],"categories_segments":[],"categories_sizes":[],"default_left":[0,0,0,0,0,0,0,0,0,0,0,0,0,0,0,0,0,0,0,0,0,0,0,0,0,0,0],"id":46,"left_children":[1,3,5,7,9,11,13,-1,15,17,19,21,23,-1,25,-1,-1,-1,-1,-1,-1,-1,-1,-1,-1,-1,-1],"loss_changes":[1.0665548E4,1.9204199E3,2.7782534E3,1.5989675E3,1.464167E3,1.0585386E3,2.1400146E0,0E0,1.5348104E3,1.9834702E3,5.8206934E2,1.0734492E3,2.7479688E2,0E0,5.663452E-1,0E0,0E0,0E0,0E0,0E0,0E0,0E0,0E0,0E0,0E0,0E0,0E0],"parents":[2147483647,0,0,1,1,2,2,3,3,4,4,5,5,6,6,8,8,9,9,10,10,11,11,12,12,14,14],"right_children":[2,4,6,8,10,12,14,-1,16,18,20,22,24,-1,26,-1,-1,-1,-1,-1,-1,-1,-1,-1,-1,-1,-1],"split_conditions":[1.3390442E0,-9.11901E-1,7.936973E-1,-3.4328553E-1,-4.5606956E-1,5.979683E-1,-5.4356635E-1,-5.532744E-2,3.2891876E-1,-1.9026668E-1,-8.6412376E-1,-3.8165176E-1,1.4996906E-1,-6.8629794E-2,-3.4707233E-1,6.177757E-2,-1.1532587E-2,-5.5725355E-2,4.054814E-3,-1.4290238E-2,-5.6860935E-2,-7.5376175E-2,2.6090879E-2,5.2900475E-2,-1.7403829E-3,-6.738537E-2,-5.8589976E-2],"split_indices":[4,10,3,4,0,11,12,0,17,18,7,22,12,0,29,0,0,0,0,0,0,0,0,0,0,0,0],"split_type":[0,0,0,0,0,0,0,0,0,0,0,0,0,0,0,0,0,0,0,0,0,0,0,0,0,0,0],"sum_hessian":[2.7741887E4,1.673913E4,1.1002757E4,3.711975E3,1.3027155E4,1.0362856E4,6.399004E2,8.4663055E2,2.8653445E3,6.002192E3,7.0249634E3,2.248059E3,8.114798E3,2.811658E2,3.5873462E2,1.3432084E3,1.5221361E3,2.1759355E3,3.8262563E3,9.255894E2,6.099374E3,2.9991745E2,1.9481417E3,7.8778403E3,2.369576E2,8.613256E1,2.7260205E2],"tree_param":{"num_deleted":"0","num_feature":"30","num_nodes":"27","size_leaf_vector":"1"}},{"base_weights":[4.8735883E-2,-4.362224E-1,7.558056E-1,2.2059374E-1,-6.9681025E-1,-4.7964253E-2,1.0109991E0,3.8162547E-1,-1.2158424E0,4.208065E-1,-8.4744E-1,-4.599579E-1,8.5596985E-1,1.0320107E0,-7.140251E-2,3.158417E-2,-3.2796588E-2,1.9522958E-2,-9.3533695E-2,-5.526672E-2,5.290706E-2,-4.9542814E-2,6.4493804E-3,1.5314999E-2,-6.504948E-2,6.585977E-2,-7.421278E-2,4.9681854E-2,1.0411193E-1],"categories":[],"categories_nodes":[],"categories_segments":[],"categories_sizes":[],"default_left":[0,0,0,0,0,0,0,0,0,0,0,0,0,0,0,0,0,0,0,0,0,0,0,0,0,0,0,0,0],"id":47,"left_children":[1,3,5,7,9,11,13,15,17,19,21,23,25,27,-1,-1,-1,-1,-1,-1,-1,-1,-1,-1,-1,-1,-1,-1,-1],"loss_changes":[9.733118E3,2.8819336E3,2.368713E3,1.1068918E3,2.0297134E3,1.0371276E3,4.5066797E2,1.1165294E3,5.081607E2,1.394412E3,1.4877617E3,1.2331616E3,9.43072E2,3.481787E2,0E0,0E0,0E0,0E0,0E0,0E0,0E0,0E0,0E0,0E0,0E0,0E0,0E0,0E0,0E0],"parents":[2147483647,0,0,1,1,2,2,3,3,4,4,5,5,6,6,7,7,8,8,9,9,10,10,11,11,12,12,13,13],"right_children":[2,4,6,8,10,12,14,16,18,20,22,24,26,28,-1,-1,-1,-1,-1,-1,-1,-1,-1,-1,-1,-1,-1,-1,-1],"split_conditions":[1.219936E0,-1.0368849E0,4.900455E-1,1.5660487E0,-6.506419E-1,1.0073719E0,1.5916071E0,-3.964552E-1,-1.0794789E0,-1.5250717E-1,1.0334257E0,3.0363247E-1,-3.152076E-1,1.3533106E0,-7.140251E-2,3.158417E-2,-3.2796588E-2,1.9522958E-2,-9.3533695E-2,-5.526672E-2,5.290706E-2,-4.9542814E-2,6.4493804E-3,1.5314999E-2,-6.504948E-2,6.585977E-2,-7.421278E-2,4.9681854E-2,1.0411193E-1],"split_indices":[4,14,11,18,20,5,14,10,26,4,7,10,29,14,0,0,0,0,0,0,0,0,0,0,0,0,0,0,0],"split_type":[0,0,0,0,0,0,0,0,0,0,0,0,0,0,0,0,0,0,0,0,0,0,0,0,0,0,0,0,0],"sum_hessian":[2.8382809E4,1.6835926E4,1.1546882E4,4.782274E3,1.2053651E4,2.7828123E3,8.76407E3,4.3008604E3,4.814138E2,1.4314004E3,1.0622251E4,1.9119005E3,8.7091174E2,8.689787E3,7.4282486E1,3.4659382E3,8.3492206E2,1.3953592E2,3.4187787E2,4.2145758E2,1.0099428E3,9.261866E3,1.3603846E3,1.0007553E3,9.111452E2,7.2789166E2,1.4302008E2,8.385347E3,3.0444028E2],"tree_param":{"num_deleted":"0","num_feature":"30","num_nodes":"29","size_leaf_vector":"1"}},{"base_weights":[5.300234E-2,-4.1985062E-1,7.322003E-1,5.4595694E-3,-7.3148656E-1,-1.6244543E-1,9.936282E-1,2.5419918E-1,-9.2277616E-1,-1.5524635E-1,-9.6104467E-1,-6.619011E-1,8.1660825E-1,1.0141371E0,-6.993747E-2,-5.4378565E-2,2.2951497E-2,-5.822695E-2,5.3826876E-2,-4.4397604E-2,2.559702E-2,-5.0806608E-2,4.507483E-2,4.0462557E-2,-5.1968027E-2,6.883689E-2,-3.145606E-2,5.2631516E-2,4.8731055E-4],"categories":[],"categories_nodes":[],"categories_segments":[],"categories_sizes":[],"default_left":[0,0,0,0,0,0,0,0,0,0,0,0,0,0,0,0,0,0,0,0,0,0,0,0,0,0,0,0,0],"id":48,"left_children":[1,3,5,7,9,11,13,15,17,19,21,23,25,27,-1,-1,-1,-1,-1,-1,-1,-1,-1,-1,-1,-1,-1,-1,-1],"loss_changes":[8.829088E3,2.1481963E3,2.639224E3,1.5829319E3,1.2371836E3,1.2486792E3,4.2986035E2,1.4865099E3,7.0159094E2,1.303705E3,6.872163E2,9.397242E2,6.994733E2,3.3474414E2,0E0,0E0,0E0,0E0,0E0,0E0,0E0,0E0,0E0,0E0,0E0,0E0,0E0,0E0,0E0],"parents":[2147483647,0,0,1,1,2,2,3,3,4,4,5,5,6,6,7,7,8,8,9,9,10,10,11,11,12,12,13,13],"right_children":[2,4,6,8,10,12,14,16,18,20,22,24,26,28,-1,-1,-1,-1,-1,-1,-1,-1,-1,-1,-1,-1,-1,-1,-1],"split_conditions":[1.219936E0,-4.438695E-1,4.900455E-1,5.942234E-1,-8.527416E-1,1.0073719E0,1.5916071E0,-5.375104E-1,1.586907E0,-4.2726513E-2,2.4649773E0,-1.545694E0,-1.0985342E0,8.433765E-1,-6.993747E-2,-5.4378565E-2,2.2951497E-2,-5.822695E-2,5.3826876E-2,-4.4397604E-2,2.559702E-2,-5.0806608E-2,4.507483E-2,4.0462557E-2,-5.1968027E-2,6.883689E-2,-3.145606E-2,5.2631516E-2,4.8731055E-4],"split_indices":[4,14,11,5,26,5,14,4,0,20,22,14,11,10,0,0,0,0,0,0,0,0,0,0,0,0,0,0,0],"split_type":[0,0,0,0,0,0,0,0,0,0,0,0,0,0,0,0,0,0,0,0,0,0,0,0,0,0,0,0,0],"sum_hessian":[2.748922E4,1.62066455E4,1.1282574E4,6.8537974E3,9.352849E3,2.5514624E3,8.731111E3,5.4059023E3,1.4478951E3,2.664943E3,6.6879053E3,1.6897667E3,8.6169574E2,8.657471E3,7.364117E1,7.15383E2,4.6905195E3,1.2920717E3,1.5582352E2,1.2699503E3,1.3949928E3,6.4962236E3,1.9168124E2,3.4479202E2,1.3449747E3,6.211045E2,2.405913E2,8.337875E3,3.1959573E2],"tree_param":{"num_deleted":"0","num_feature":"30","num_nodes":"29","size_leaf_vector":"1"}},{"base_weights":[1.4404691E-2,1.0181161E0,-2.89963E-1,1.0280489E0,-5.694312E-2,3.461858E-1,-4.2521077E-1,1.0316706E0,-3.7160807E0,8.454098E-1,-7.25118E-1,5.008592E-1,-5.5130786E-1,5.172075E-2,-1.359251E-1,-2.4815594E-1,-8.4666155E-2,4.964949E-2,-6.3593E-2,6.8409756E-2,-6.342461E-2,4.029904E-2,-8.351542E-2,1.0009675E-2,-3.2548647E-2],"categories":[],"categories_nodes":[],"categories_segments":[],"categories_sizes":[],"default_left":[0,0,0,0,0,0,0,0,0,0,0,0,0,0,0,0,0,0,0,0,0,0,0,0,0],"id":49,"left_children":[1,3,5,7,-1,9,11,13,15,17,19,21,23,-1,-1,-1,-1,-1,-1,-1,-1,-1,-1,-1,-1],